{"version": 1, "policyFeatureDim": 40, "policyHiddenSizes": [64, 64], "policyLayers": [{"inSize": 40, "outSize": 64, "weights": [0.09646300226449966, -0.004052948206663132, -0.05538183078169823, 0.09344998002052307, 0.11242211610078812, 0.06576526165008545, 0.05662691965699196, 0.1515933871269226, 0.05810986086726189, -0.14674751460552216, 0.10275106132030487, 0.13148270547389984, -0.054356567561626434, 0.0006142773199826479, -0.08992214500904083, 0.18292556703090668, 0.119706891477108, 0.018984582275152206, 0.2347889542579651, -0.03812933713197708, 0.08931084722280502, 0.08537779748439789, -0.08746492862701416, 0.13675452768802643, -0.08453056961297989, -0.006285513751208782, 0.05647760257124901, -0.11705271154642105, -0.024709686636924744, -0.08580982685089111, -0.15722960233688354, 0.07828091084957123, -0.1724475920200348, 0.0790199339389801, -0.07788879424333572, -0.1491481065750122, 0.14571623504161835, 0.016889704391360283, -0.006894935853779316, 0.1971258521080017, 0.07573846727609634, 0.1228465810418129, 0.1330791711807251, -0.20265908539295197, -0.30731239914894104, -0.04901963099837303, -0.5484877824783325, -0.41318532824516296, 0.07974419742822647, 0.035111989825963974, -0.05733201280236244, 0.13972064852714539, -0.12214463949203491, 0.03034691885113716, -0.004158058203756809, 0.2041960507631302, 0.21208028495311737, -0.12014047056436539, -0.03815528005361557, -0.1390942633152008, -0.09721427410840988, 0.06514396518468857, -0.05775542929768562, -0.10281797498464584, -0.09149324148893356, -0.05029969662427902, 0.062352292239665985, -0.11667320132255554, -0.155364528298378, -0.05382171645760536, 0.07448264211416245, 0.10277166962623596, 0.1387721747159958, 0.09451835602521896, 0.060488030314445496, -0.18350298702716827, -0.041164085268974304, -0.14919443428516388, 0.022708432748913765, 0.035305608063936234, -0.02175994962453842, 0.05104985460639, 0.07061000913381577, 0.12373191863298416, 0.10076102614402771, -0.1652272641658783, 0.24104322493076324, -0.014692083932459354, 0.01418230403214693, 0.10501167178153992, 0.1440916210412979, 0.005048668943345547, -0.06936340034008026, -0.07046446949243546, 0.1987207978963852, -0.20281139016151428, -0.47623512148857117, 0.09095820784568787, 0.0028774209786206484, -0.10107217729091644, -0.020484279841184616, -0.010353541001677513, 0.05631810799241066, 0.040391869843006134, -0.14864850044250488, 0.03141763433814049, 0.07628553360700607, -0.10511305928230286, 0.14379136264324188, -0.030953487381339073, 0.08817359805107117, 0.18159326910972595, 0.27011510729789734, -0.2799171507358551, -0.07774066179990768, 0.1250336766242981, 0.12962926924228668, -0.1386467069387436, -0.056087180972099304, -0.10219653695821762, 0.07008768618106842, 0.1301499903202057, -0.1473391205072403, 0.08447933942079544, 0.06223784387111664, -0.09040459990501404, 0.056891199201345444, -0.10762601345777512, -0.03191284462809563, -0.06845199316740036, 0.062053974717855453, 0.09211528301239014, -0.0333624966442585, -0.12785349786281586, -0.04381795972585678, -0.010219278745353222, -0.03433462604880333, 0.06666572391986847, -0.10115588456392288, 0.13245491683483124, 0.10696344077587128, 0.12569297850131989, -0.11484446376562119, 0.0560777485370636, -0.0827319398522377, 0.04827716201543808, -0.12833744287490845, -0.042778901755809784, 0.14459121227264404, -0.13187487423419952, 0.027027955278754234, -0.11605529487133026, -0.056700754910707474, -0.11044753342866898, 0.07947620749473572, -0.07632118463516235, 0.0576983205974102, -0.01103498600423336, -0.03976764157414436, -0.12759210169315338, -0.10392535477876663, 0.14838187396526337, -0.054144445806741714, -0.1855870932340622, -0.04848017171025276, 0.020007696002721786, 0.04874291270971298, -0.13823740184307098, -0.0636972188949585, 0.02682657726109028, -0.06694451719522476, -0.007186951115727425, -0.1566382795572281, -0.061830732971429825, 0.04987270012497902, -0.1106133833527565, -0.032657984644174576, -0.0035509676672518253, -0.14325207471847534, 0.07064999639987946, -0.056241944432258606, 0.002325112232938409, 0.03643137589097023, 0.08931156247854233, 0.0924508273601532, 0.06197626143693924, -0.15682655572891235, 0.058814629912376404, -0.03413962572813034, -0.08003795892000198, 0.06475609540939331, -0.004699234385043383, -0.03935646638274193, 0.15676280856132507, -0.071383997797966, -0.0011660113232210279, -0.1802644431591034, -0.019181085750460625, 0.035785309970378876, 0.016838055104017258, 0.10523052513599396, 0.003677144180983305, -0.11910233646631241, 0.1677374690771103, -0.06224667653441429, 0.12929794192314148, 0.11819294095039368, 0.12116815149784088, -0.02651027776300907, -0.11667119711637497, 0.137364000082016, 0.11319670081138611, 0.10866576433181763, 0.14858093857765198, 0.052355311810970306, -0.05380113795399666, 0.09243836253881454, 0.01135215349495411, 0.11318029463291168, -0.04698712378740311, 0.17646509408950806, 0.15098169445991516, 0.06905394792556763, -0.02610718086361885, 0.10708998143672943, 0.08313712477684021, 0.13598623871803284, 0.058037009090185165, 0.038864415138959885, 0.13717100024223328, 0.11363108456134796, -0.01332047302275896, 0.07074999809265137, -0.010377258062362671, 0.08578132838010788, -0.07189004123210907, 0.07403966039419174, 0.009258437901735306, 0.0005992684164084494, 0.10994388163089752, 0.007659485563635826, 0.0037202886305749416, -0.17719151079654694, 0.020434902980923653, 0.01415769662708044, -0.14827857911586761, 0.004332548473030329, -0.15240010619163513, 0.004671561066061258, 0.08570902049541473, 0.1089247465133667, -0.09738972783088684, 0.058279119431972504, -0.053700558841228485, 0.17262575030326843, 0.04114633798599243, 0.028272030875086784, 0.09625668078660965, 0.09597800672054291, -0.11425080895423889, 0.008770388551056385, 0.11394704133272171, -0.15714766085147858, 0.14817701280117035, -0.059506241232156754, 0.04298587888479233, 0.11433883011341095, 0.08200230449438095, 0.023488162085413933, 0.01142915803939104, -0.07675179094076157, 0.05606888234615326, -0.08527732640504837, 0.039110999554395676, -0.0392330177128315, -0.1720646172761917, -0.19630783796310425, -0.09688083082437515, -0.10189894586801529, 0.06207289919257164, -0.1040695384144783, 0.0491173230111599, -0.04695798456668854, -0.058339934796094894, -0.09158298373222351, 0.09276635944843292, 0.03558545932173729, -0.03417305275797844, 0.06851634383201599, 0.01766170747578144, 0.06562336534261703, -0.0384155735373497, -0.09870468825101852, 0.10283130407333374, 0.2318251132965088, -0.22360877692699432, -0.1635739952325821, -0.2015705108642578, -0.06526235491037369, 0.047384828329086304, -0.06237376108765602, 0.07359543442726135, 0.002777441870421171, 0.14583130180835724, -0.06187199056148529, 0.14490339159965515, -0.011760253459215164, -0.13288913667201996, 0.0013894842704758048, -0.09963394701480865, -0.023501940071582794, -0.021276535466313362, 0.17953188717365265, -0.05900079384446144, 0.09878193587064743, 0.09361011534929276, 0.08011114597320557, -0.07134315371513367, 0.09653128683567047, -0.061404239386320114, 0.07172346115112305, 0.08998628705739975, 0.01989440992474556, 0.2339259386062622, 0.08961014449596405, -0.07105395942926407, 0.3353630304336548, 0.16651523113250732, -0.08988401293754578, -0.1097293421626091, -0.0225303303450346, 0.11872841417789459, 0.054089199751615524, 0.09366071969270706, -0.055808261036872864, 0.08228638023138046, -0.20170944929122925, 0.3051493763923645, -0.0602213516831398, -0.14971204102039337, -0.08007711172103882, 0.009054737165570259, 0.1543518453836441, 0.0563078336417675, 0.09334532171487808, -0.11541225761175156, -0.055238645523786545, -0.017864782363176346, 0.0018195915035903454, 0.10380177944898605, -0.13829739391803741, 0.13911952078342438, 0.17344814538955688, 0.13565458357334137, -0.1068151667714119, 0.0290095042437315, -0.035698916763067245, -0.012690098956227303, -0.0030072482768446207, 0.017089685425162315, -0.1389615684747696, -0.058028772473335266, -0.14798884093761444, 0.23641540110111237, -0.25197839736938477, -0.029708148911595345, -0.04381575435400009, -0.18334713578224182, 0.10316024720668793, 0.012470300309360027, -0.14873309433460236, 0.1529534012079239, 0.04408799484372139, -0.10439419001340866, -0.4292217493057251, 0.11750582605600357, -0.17294183373451233, 0.26923903822898865, 0.028516551479697227, -0.12230943143367767, -0.06258505582809448, 0.07173258066177368, -0.05335281789302826, 0.08076661080121994, 0.07744786888360977, 0.01062807161360979, 0.14528432488441467, 0.06831523030996323, 0.08546555787324905, 0.04401993378996849, -0.019995734095573425, -0.039889391511678696, -0.18619556725025177, 0.19372381269931793, 0.031905364245176315, 0.01988927461206913, -0.12894971668720245, 0.050236303359270096, -0.09641824662685394, 0.002087068511173129, 0.11006726324558258, -0.013488485477864742, 0.0051780398935079575, -0.06735754013061523, -0.022285910323262215, 0.06622239202260971, 0.0952351838350296, 0.036318693310022354, 0.08258312940597534, 0.11311802268028259, -0.03466814011335373, 0.17248743772506714, -0.08859260380268097, 0.017142463475465775, -0.18844957649707794, 0.08325552940368652, -0.13217440247535706, 0.075518399477005, -0.09658490866422653, -0.11056804656982422, 0.05208101123571396, -0.09474688768386841, -0.06757619231939316, -0.1259063333272934, 0.1303444355726242, -0.08808442205190659, -0.02815035544335842, -0.06003129109740257, 0.06791030615568161, 0.004068008624017239, 0.12234102189540863, 0.038512926548719406, -0.02807285450398922, 0.05806094780564308, -0.0677405372262001, 0.024449454620480537, -0.21926173567771912, 0.04100308194756508, 0.11127642542123795, 0.11672968417406082, -0.0694483295083046, 0.0052560195326805115, 0.06700527667999268, 0.060235437005758286, 0.04014922305941582, 0.1501263976097107, 0.07678470760583878, -0.08559517562389374, -0.1402936577796936, -0.08951109647750854, -0.07418300211429596, 0.14703576266765594, 0.09981431066989899, 0.08786099404096603, -0.048961810767650604, -0.08389654755592346, 0.17146086692810059, -0.04722670465707779, 0.1807662695646286, 0.13574229180812836, 0.03222949802875519, -0.057740502059459686, -0.13635937869548798, -0.13591760396957397, -0.13331054151058197, 0.13001763820648193, 0.07620248198509216, -0.12149594724178314, 0.13874904811382294, 0.12377338856458664, -0.0845971629023552, 0.006277027074247599, 0.14572280645370483, 0.00947293359786272, -0.13977135717868805, -0.023026926442980766, 0.02882707491517067, 0.009790015406906605, 0.0018152553820982575, 0.1718149036169052, -0.07463080435991287, 0.13649654388427734, -0.06473182886838913, 0.01349663082510233, 0.09713182598352432, -0.10846540331840515, 0.10682391375303268, 0.12038329988718033, -0.029810957610607147, 0.018077846616506577, 0.1322917491197586, -0.18353262543678284, 0.15366561710834503, 0.02162785641849041, -0.14417840540409088, 0.02258041873574257, 0.02766064740717411, 0.04013965651392937, 0.019472671672701836, -0.12706072628498077, -0.041874099522829056, 0.027017343789339066, 0.14366136491298676, 0.06238565593957901, -0.10725688934326172, -0.0775044709444046, 0.03101474605500698, 0.12491848319768906, -0.04419532045722008, 0.1521853357553482, 0.13514558970928192, 0.013758039101958275, -0.12011846154928207, -0.1361626386642456, -0.13756109774112701, -0.01992737129330635, -0.10534842312335968, -0.07994791865348816, -0.1461220681667328, 0.06390485167503357, -0.15666630864143372, -0.03449876606464386, 0.1486581414937973, 0.11616679280996323, -0.12505881488323212, 0.15298907458782196, 0.04141486436128616, -0.10361915081739426, -0.10832221060991287, 0.07123319059610367, 0.08793361485004425, -0.06098763644695282, -0.12428782135248184, 0.0875178724527359, -0.10701032727956772, -0.06804649531841278, -0.0074895229190588, 0.11424723267555237, -0.14410704374313354, 0.023099465295672417, -0.05295104533433914, -0.08718346059322357, -0.13299758732318878, -0.04071418195962906, 0.12114512920379639, -0.028858648613095284, 0.1328127086162567, 0.07973383367061615, -0.11523827165365219, 0.11866753548383713, -0.15512968599796295, 0.06831163913011551, 0.11479725688695908, 0.009106026962399483, -0.003309953724965453, 0.02972513437271118, -0.12918944656848907, -0.14053770899772644, 0.11690008640289307, -0.15043051540851593, -0.011980307288467884, -0.03354393318295479, -0.1155923530459404, -0.18308214843273163, -0.03408243507146835, -0.15833652019500732, -0.2879711985588074, -0.05755363777279854, -0.07111287862062454, 0.03711644560098648, 0.10005322098731995, -0.0020649449434131384, -0.0018846193561330438, -0.11462242901325226, 0.10879404842853546, 0.10083070397377014, 0.06737171858549118, -0.06507895141839981, -0.09727941453456879, 0.15470874309539795, -0.20406833291053772, 0.03181040287017822, 0.11892984807491302, 0.02940814383327961, -0.05857183784246445, -0.11491209268569946, 0.02937849424779415, 0.07799272984266281, -0.062160734087228775, 0.0688374862074852, 0.005097954999655485, -0.06540203094482422, 0.1669430136680603, -0.057593848556280136, -0.11963624507188797, -0.12695977091789246, 0.13003568351268768, 0.005274164490401745, -0.008800555020570755, 0.04186202213168144, -0.21074335277080536, 0.01669963449239731, 0.05835527554154396, -0.02608543634414673, -0.06499496102333069, 0.06966481357812881, -0.09736361354589462, -0.2734903395175934, -0.008512575179338455, -0.03802521526813507, -0.15065966546535492, -0.045056603848934174, -0.0866830050945282, 0.0985444039106369, -0.1392143964767456, 0.10590488463640213, -0.014190493151545525, -0.14494474232196808, 0.1025925725698471, 0.0806744396686554, 0.049784108996391296, -0.08398902416229248, -0.05259270966053009, -0.045411866158246994, 0.12493137270212173, -0.05998062342405319, -0.154464989900589, -0.03232438862323761, 0.08515485376119614, 0.09143912047147751, 0.019513849169015884, -0.030825624242424965, -0.16109557449817657, -0.023984864354133606, -0.08277934044599533, 0.03254904970526695, -0.05814235657453537, -0.035004183650016785, -0.009366670623421669, 0.03479411453008652, -0.10932168364524841, -0.007816193625330925, 0.0022553156595677137, -0.024137835949659348, 0.04137516766786575, 0.08776403218507767, -0.15377900004386902, 0.07834966480731964, -0.15611632168293, -0.09992555528879166, 0.004860725719481707, -0.045790575444698334, -0.08723904192447662, 0.03353648632764816, 0.016569050028920174, -0.00804169848561287, -0.1118181049823761, -0.07939384132623672, -0.009773719124495983, -0.1038588359951973, -0.0627986490726471, 0.12331627309322357, 0.1522306352853775, -0.057535428553819656, 0.1146392971277237, -0.15277792513370514, -0.14694391191005707, -0.02704804763197899, -0.046030666679143906, -0.08368648588657379, -0.10782534629106522, -0.1450032740831375, -0.05378096550703049, 0.10553263127803802, -0.02945275790989399, -0.014803385362029076, 0.014004655182361603, -0.1432092934846878, 0.1356002688407898, -0.01531305257230997, -0.07248739153146744, 0.15018141269683838, -0.0626867413520813, -0.01890154927968979, -0.21018286049365997, -0.09748589247465134, -0.15064407885074615, -0.14211373031139374, -0.01334071159362793, 0.10442368686199188, 0.12718437612056732, -0.22164632380008698, -0.08907964825630188, -0.045911677181720734, 0.18474411964416504, 0.05998653173446655, -0.006640419829636812, 0.05455540493130684, -0.11545325815677643, 0.02532145567238331, 0.012382104061543941, 0.1550213247537613, 0.03255186975002289, 0.058840468525886536, 0.08778126537799835, -0.08611983060836792, 0.06766459345817566, -0.1024806797504425, 0.0322139710187912, -0.12011217325925827, -0.021384162828326225, -0.18711607158184052, 0.26158052682876587, -0.14944925904273987, 0.12879295647144318, -0.1339890956878662, 0.01827613264322281, 0.11308136582374573, -0.04400056600570679, -0.11940723657608032, -0.15627868473529816, -0.043592292815446854, -0.10936570167541504, 0.07123538106679916, -0.08212117105722427, -0.13508228957653046, 0.03885840252041817, 0.10740485787391663, -0.02598266676068306, 0.14482508599758148, -0.07329679280519485, 0.0035752723924815655, -0.12147510051727295, 0.1307636946439743, 0.04449322819709778, -0.010769583284854889, -0.12898869812488556, -0.1137210801243782, 0.08748116344213486, 0.11129219084978104, -0.027573317289352417, -0.013741678558290005, -0.13050341606140137, 0.12794692814350128, 0.07480451464653015, -0.05805540457367897, 0.05050773173570633, -0.07836738228797913, -0.002692151814699173, 0.04053167253732681, -0.1525924801826477, -0.10778958350419998, 0.0023800323251634836, -0.038766831159591675, -0.008438103832304478, -0.08248084783554077, -0.0977545753121376, -0.05447102338075638, -0.15079477429389954, 0.10554662346839905, 0.02244015596807003, 0.055276285856962204, 0.14111913740634918, 0.06670420616865158, 0.04324967414140701, -0.08368179202079773, 0.03486621007323265, 0.009813194163143635, -0.13271187245845795, -0.10102098435163498, -0.04704681783914566, -0.048445962369441986, 0.04027840122580528, -0.044094666838645935, -0.1421671062707901, 0.474984735250473, 0.12603241205215454, 0.022808555513620377, -0.10207296907901764, -0.07263372093439102, 0.1799490749835968, -0.048614758998155594, 0.031395506113767624, 0.07602672278881073, -0.11110404878854752, 0.039643313735723495, -0.11134125292301178, 0.07362864166498184, -0.0005130977951921523, 0.019972437992691994, -0.007177205290645361, -0.07553448528051376, -0.025601716712117195, -0.039843879640102386, 0.025559740141034126, 0.029824240133166313, -0.2985406517982483, 0.26601096987724304, 0.0012334117200225592, -0.0038222111761569977, 0.045634713023900986, 0.013135525397956371, 0.19440653920173645, -0.09668295085430145, -0.09299582242965698, 0.22042132914066315, 0.00439234497025609, -0.008182530291378498, -0.13202519714832306, -0.149244025349617, -0.09509774297475815, 0.014112664386630058, 0.10824636369943619, -0.013799864798784256, 0.1858999878168106, 0.4595511555671692, 0.25801119208335876, -0.05106131732463837, -0.03248579055070877, -0.1262681931257248, 0.10058867186307907, 0.002983778016641736, -0.11140008270740509, -0.018324462696909904, 0.1354628950357437, -0.0057731508277356625, 0.04603162780404091, -0.06761342287063599, 0.10967577248811722, -0.060197118669748306, -0.09290136396884918, -0.12451118975877762, 0.25421568751335144, 0.0930648222565651, -0.05094831809401512, -0.08215184509754181, 0.28406843543052673, -0.2821981608867645, 0.09172534942626953, -0.005461377557367086, 0.0795610174536705, 0.01976199261844158, 0.09350725263357162, -0.035271868109703064, -0.08749502152204514, -0.032912008464336395, -0.1430138200521469, -0.04012889415025711, 0.07328365743160248, -0.13530880212783813, 0.09005880355834961, -0.04177137091755867, 0.13079339265823364, 0.006821813993155956, -0.15370646119117737, -0.09235598891973495, 0.08756842464208603, -0.06636298447847366, 0.05288153141736984, 0.1487514078617096, -0.03331972286105156, -0.15229786932468414, -0.06262273341417313, 0.03047540970146656, -0.01598176546394825, 0.019056731835007668, -0.07181097567081451, 0.1427146941423416, 0.09478994458913803, -0.03697611764073372, -0.12736371159553528, 0.017185941338539124, -0.14100967347621918, 0.03993489220738411, -0.01896980218589306, -0.14669688045978546, -0.03744717314839363, -0.2229723483324051, -0.10376927256584167, -0.04876769706606865, 0.150932177901268, 0.08017781376838684, -0.021095944568514824, -0.017491182312369347, 0.15728645026683807, -0.0961243212223053, -0.0708642452955246, 0.0028644143603742123, -0.0341956801712513, 0.15216946601867676, 0.0020428537391126156, -0.00035458855563774705, 0.02240794524550438, -0.061500050127506256, 0.17758424580097198, 0.20937871932983398, 0.1614554077386856, 0.19220417737960815, 0.12920208275318146, -0.1047816053032875, 0.01776040345430374, -0.0286224577575922, -0.15476317703723907, 0.1106075718998909, 0.08405974507331848, 0.01800573244690895, 0.004119314718991518, 0.06030510365962982, -0.027081994339823723, -0.14595149457454681, -0.10147491097450256, 0.10714053362607956, 0.24745753407478333, 0.11143393814563751, 0.0673903077840805, -0.012288632802665234, 0.026810867711901665, 0.0055033378303050995, 0.004238993860781193, 0.0750499963760376, 0.018835335969924927, -0.11589419841766357, 0.05571025609970093, 0.1446245163679123, 0.10695913434028625, 0.005529607646167278, -0.060810528695583344, -0.008427567780017853, 0.023905036970973015, 0.03082980215549469, 0.09861154109239578, 0.10778061300516129, 0.0748826265335083, -0.1525421440601349, -0.11212262511253357, -0.02145380899310112, -0.062123000621795654, -0.1354665458202362, -0.059962622821331024, 0.06607461720705032, -0.1509297639131546, -0.017571251839399338, -0.13948799669742584, -0.04959473758935928, -0.08134486526250839, -0.10558713972568512, -0.042269498109817505, -0.09449984133243561, 0.08810906112194061, -0.027650244534015656, 0.11569976061582565, -0.13999132812023163, -0.1185639426112175, -0.13774003088474274, -0.01749655418097973, 0.12572118639945984, 0.14228780567646027, -0.03643367439508438, -0.03894944116473198, -0.07518374919891357, -0.16141566634178162, 0.14321587979793549, -0.09665026515722275, 0.03827422112226486, 0.12821893393993378, -0.018249914050102234, 0.08202173560857773, -0.13963116705417633, -0.055858314037323, -0.0842192992568016, -0.14406707882881165, 0.12060441076755524, 0.14762285351753235, 0.01381426490843296, 0.08486336469650269, -0.006739114876836538, -0.03733498603105545, -0.048524193465709686, 0.0680120512843132, 0.0862744078040123, -0.14837203919887543, -0.08128507435321808, -0.14479944109916687, -0.009694987908005714, -0.012460348196327686, -0.14019790291786194, -0.02371012419462204, 0.01589866168797016, -0.11288917809724808, 0.06432899087667465, 0.06180726736783981, -0.01639804057776928, -0.022609634324908257, -0.007846991531550884, -0.15546481311321259, -0.011531490832567215, -0.07301708310842514, 0.09167308360338211, 0.1146850436925888, 0.08975820243358612, 0.09943309426307678, -0.010234021581709385, -0.11945804208517075, -0.17202706634998322, 0.12230770289897919, 0.19082817435264587, -0.0008466723375022411, 0.10434450954198837, -0.00912464689463377, 0.055412109941244125, 0.025351764634251595, 0.0168662928044796, -0.12591513991355896, 0.05251098424196243, -0.3218716084957123, 0.4050361216068268, 0.3319915533065796, -0.16166940331459045, -0.036813560873270035, -0.002066112821921706, -0.045295607298612595, 0.1526033878326416, 0.0661468654870987, 0.026098981499671936, 0.03610746189951897, 0.07372062653303146, 0.11369611322879791, 0.08396901190280914, 0.09972304850816727, 0.008581636473536491, -0.1555219143629074, -0.018206199631094933, -0.1523589789867401, -0.12115735560655594, -0.052228838205337524, -0.08394128084182739, -0.2586411237716675, 0.29849910736083984, 0.16530153155326843, 0.04264840856194496, -0.07229787111282349, -0.01944965124130249, 0.03487323224544525, -0.015780461952090263, -0.0807940661907196, -0.062162864953279495, -0.13136613368988037, -0.032930728048086166, 0.061941053718328476, -0.03633813187479973, 0.12624579668045044, -0.11379086226224899, -0.08300567418336868, -0.1425011157989502, -0.11928420513868332, 0.029038144275546074, -0.07170427590608597, 0.001446595648303628, -0.06588061153888702, 0.10344947874546051, -0.1544848531484604, -0.14618715643882751, 0.07874495536088943, -0.055202607065439224, 0.1551641970872879, -0.10322018712759018, 0.12468501925468445, -0.12028201669454575, -0.044400013983249664, -0.03328713774681091, 0.10880008339881897, 0.10191350430250168, -0.10913964360952377, -0.02799660712480545, 0.1465577781200409, -0.13556069135665894, 0.10228118300437927, -0.14243637025356293, 0.07077403366565704, 0.11338102072477341, 0.25096437335014343, 0.07112825661897659, 0.12606379389762878, 0.18555602431297302, 0.24684756994247437, 0.08449089527130127, 0.1366579383611679, 0.3581061065196991, 0.05729450285434723, 0.0023611129727214575, 0.14416542649269104, 0.09515295922756195, -0.0027799676172435284, -0.08367113023996353, -0.055740538984537125, 0.1747353971004486, 0.15326283872127533, 0.27725356817245483, 0.09974247962236404, 0.09164678305387497, 0.03574949502944946, 0.037947654724121094, -0.10893996059894562, -0.053540609776973724, 0.01662120595574379, 0.01753998175263405, -0.020566433668136597, 0.025153137743473053, -0.07198093086481094, 0.0900053083896637, -0.04262179508805275, -0.006130050867795944, -0.14614635705947876, 0.09528487175703049, 0.008511199615895748, -0.007973922416567802, -0.3237916827201843, 0.07896257936954498, 0.11833936721086502, 0.03622019663453102, 0.03504182770848274, -0.0667358860373497, -0.18954649567604065, 0.08314819633960724, 0.03456314653158188, -0.17937253415584564, -0.10371309518814087, 0.059417665004730225, -0.005748685449361801, -0.027168981730937958, -0.15779627859592438, -0.1727752834558487, -0.02239665575325489, -0.02024299092590809, -0.063971146941185, -0.19568131864070892, -0.18095184862613678, 0.034014344215393066, 0.026273950934410095, -0.13743318617343903, -0.14671528339385986, -0.12695997953414917, 0.11874460428953171, 0.12735463678836823, -0.004014120437204838, 0.017492275685071945, 0.1378970891237259, -0.03352202847599983, -0.11962760984897614, 0.07296641916036606, -0.12471908330917358, 0.09838910400867462, 0.09795495867729187, -0.2510661780834198, 0.020103661343455315, 0.14850175380706787, 0.05069928616285324, -0.011921864934265614, -0.12728171050548553, 0.0011816947953775525, -0.050802893936634064, -0.14121831953525543, 0.09953618794679642, 0.02599184215068817, 0.06776167452335358, 0.15087665617465973, 0.12279867380857468, 0.20861466228961945, 0.12974150478839874, -0.0532732792198658, 0.04443679004907608, 0.11298159509897232, -0.04675477743148804, -0.004947655834257603, 0.20524932444095612, 0.20284467935562134, 0.05232959985733032, 0.02584907039999962, 0.20930016040802002, 0.052398815751075745, 0.006987502798438072, -0.12565605342388153, -0.047274526208639145, -0.0314348079264164, -0.031134698539972305, 0.09224893897771835, -0.019010158255696297, 0.09677819162607193, 0.09698722511529922, 0.008718251250684261, -0.04571795091032982, -0.06202351674437523, 0.31039246916770935, -0.047501225024461746, -0.06305190175771713, -0.15137852728366852, -0.1852830946445465, 0.23353099822998047, 0.06908123940229416, 0.13946262001991272, 0.02057550475001335, -0.06132933869957924, -0.05975332856178284, 0.1832379698753357, -0.17006739974021912, 0.006265442352741957, -0.5027427673339844, -0.3324205279350281, -0.12661051750183105, -0.013147607445716858, 0.030373118817806244, 0.12428706139326096, -0.08730197697877884, -0.09152671694755554, 0.11621731519699097, 0.015744682401418686, 0.054986611008644104, -0.08109144121408463, -0.0011309731053188443, -0.08543690294027328, 0.13251250982284546, -0.012493936344981194, 0.060906339436769485, -0.15797699987888336, 0.06156083941459656, -0.10239670425653458, -0.018919117748737335, -0.08486142009496689, 0.013107516802847385, -0.07549648731946945, 0.06404880434274673, -0.3807188868522644, 0.19316984713077545, 0.21392223238945007, -0.006472492124885321, 0.162326380610466, -0.015686172991991043, 0.0071540717035532, 0.019753439351916313, -0.01146687101572752, -0.16708429157733917, -0.006581494119018316, -0.18693162500858307, -0.00621313601732254, 0.11185002326965332, -0.009702993556857109, -0.1729561984539032, -0.0426529198884964, 0.0929424911737442, -0.08375110477209091, -0.07750754803419113, 0.06094444543123245, -0.0026300454046577215, -0.0708286240696907, -0.06325977295637131, -0.04316786304116249, 0.13319890201091766, -0.17412570118904114, -0.08491113781929016, -0.06012943387031555, -0.04187379404902458, -0.10655722767114639, 0.1579502522945404, 0.005330584943294525, 0.10661742836236954, 0.030744437128305435, 0.05532340705394745, 0.10212554782629013, 0.02896968647837639, 0.06663262844085693, 0.13681931793689728, -0.01289256289601326, -0.026560034602880478, -0.006030820310115814, -0.14975623786449432, 0.08477696031332016, -0.05527965724468231, -0.01197806466370821, 0.028946949169039726, 0.10916132479906082, -0.15782177448272705, 0.07332248985767365, 0.013575317338109016, 0.1102067232131958, 0.05405956879258156, -0.01650867983698845, -0.21581509709358215, 0.013690152205526829, -0.07505599409341812, 0.05926871299743652, 0.13304340839385986, 0.13144388794898987, -0.14138852059841156, -0.06104344129562378, -0.1065804585814476, 0.15381869673728943, 0.14201030135154724, -0.02628237195312977, -0.015774544328451157, -0.07237359136343002, -0.07230078428983688, -0.13436859846115112, -0.04321694374084473, -0.13638752698898315, 0.02175210788846016, 0.0944025069475174, -0.05531347543001175, 0.11906544864177704, 0.08486691862344742, 0.02246999554336071, -0.1549326330423355, 0.01604226604104042, -0.17947852611541748, 0.028979631140828133, -0.12412501126527786, -1.2669020891189575, 0.017163090407848358, -1.9286160469055176, -0.8168882131576538, 0.009184910915791988, -0.004590406082570553, 0.06352172046899796, 0.018526362255215645, 0.2527960538864136, -0.3694976270198822, 0.035657159984111786, 0.046477966010570526, 0.03391231596469879, 0.12074699252843857, 0.11708170175552368, -0.1011505275964737, 0.14827625453472137, 0.03307616338133812, 0.06165691092610359, -0.044396739453077316, 0.03188375011086464, 0.08228503912687302, -0.028783321380615234, 0.03984047472476959, -0.13968174159526825, 0.020376231521368027, -0.14769035577774048, -0.017822202295064926, -0.09043385088443756, -0.04367319121956825, -0.04286038130521774, 0.09519021213054657, 0.07192683964967728, -0.03359146788716316, 0.08670967817306519, -0.04625951126217842, -0.06883763521909714, -0.05225418508052826, -0.08125197142362595, 0.1543750911951065, -0.22246487438678741, -0.14017778635025024, -0.5294464230537415, 0.09380271285772324, 0.11671973019838333, 0.1386490762233734, -0.01311452779918909, 0.10073225200176239, -0.020687712356448174, 0.12273185700178146, 0.17332832515239716, -0.06808122247457504, 0.1237274557352066, 0.01712043024599552, -0.011798383668065071, 0.09709982573986053, 0.16650259494781494, -0.022228149697184563, 0.057761989533901215, -0.14358070492744446, 0.2932117283344269, 0.36173954606056213, -0.10505899041891098, 0.0904727652668953, 0.058074235916137695, 0.08838135004043579, 0.04232444241642952, -0.02150912955403328, 0.14538972079753876, -0.03423166275024414, 0.15059520304203033, -0.020445160567760468, -0.15277373790740967, 0.07294485718011856, -0.07494398206472397, 0.010584531351923943, -0.08636587858200073, 0.13495735824108124, -0.1016337126493454, 0.11222165822982788, -0.08095064014196396, -0.2517782151699066, 0.2880571484565735, -0.024372249841690063, -0.07728752493858337, 0.15141618251800537, -0.1363777071237564, -0.007243648171424866, 0.1426982432603836, 0.0563434399664402, 0.08779233694076538, 0.32657209038734436, 0.014922677539288998, -0.025631610304117203, 0.08916360139846802, 0.008029785938560963, 0.25214287638664246, -0.0757615938782692, 0.11442200839519501, 0.04111962765455246, 0.08579797297716141, 0.08819225430488586, 0.0063009122386574745, 0.12826666235923767, 0.012240082956850529, 0.07482840120792389, 0.033413875848054886, 0.07717066258192062, 0.0317310132086277, 0.07274752855300903, 0.019267214462161064, 0.11913643032312393, -0.13063813745975494, -0.09179718792438507, -0.10552375018596649, 0.09124536067247391, -0.09619687497615814, 0.13139639794826508, -0.09730380773544312, 0.11856256425380707, -0.12043320387601852, 0.11480555683374405, 0.019862795248627663, -0.01450655609369278, -0.03322017565369606, 0.01294673141092062, 0.07348743081092834, -0.12895286083221436, 0.04196862131357193, -0.0069883125834167, -0.0018846993334591389, 0.365441232919693, 0.0707312747836113, 0.14079348742961884, 0.13961553573608398, 0.002592159667983651, -0.039302628487348557, -0.026062114164233208, -0.10277730226516724, 0.219120591878891, -0.07085630297660828, -0.05888906121253967, 0.1692202389240265, 0.016188504174351692, -0.0967988520860672, -0.12488527595996857, -0.1239515095949173, -0.015601267106831074, -0.1158517375588417, -0.10155347734689713, -0.04916691407561302, -0.033709216862916946, 0.11492368578910828, -0.03376905992627144, -0.01934138499200344, -0.006002896931022406, 0.0563649944961071, 0.10915154218673706, 0.10280803591012955, -0.03097904659807682, -0.14977355301380157, -0.3633306324481964, -0.3736324608325958, -0.08049708604812622, 0.09594572335481644, 0.12016350775957108, -0.04554523900151253, -0.06986100971698761, -0.08833083510398865, 0.009106648154556751, -0.0011640917509794235, 0.07977607846260071, -0.018122997134923935, -0.14370141923427582, -0.07212821394205093, -0.0035410758573561907, -0.11182445287704468, 0.0702788233757019, -0.11398322880268097, 0.0660262331366539, -0.15072467923164368, 0.12544499337673187, 0.08409050852060318, -0.1096031591296196, 0.13298141956329346, -0.15293319523334503, 0.00046296039363369346, -0.08431578427553177, 0.00888417661190033, 0.006564228795468807, -0.10134021937847137, -0.08091756701469421, 0.04528173804283142, -0.059556491672992706, -0.10353874415159225, 0.032211314886808395, -0.15579061210155487, -0.05340497940778732, -0.1429646611213684, -0.08243688195943832, -0.09277631342411041, 0.06382602453231812, 0.008331400342285633, -0.07349546253681183, -0.03056127391755581, -0.09857990592718124, 0.04157833755016327, 0.16551360487937927, -0.0703602135181427, 0.0029545356519520283, -0.02980772778391838, -0.05158809944987297, -0.007134251296520233, -0.07922069728374481, 0.15490326285362244, 0.12016402184963226, 0.1311921775341034, 0.14441749453544617, -0.14815658330917358, 0.3201550841331482, -0.04538041353225708, 0.08857510983943939, 0.06740725040435791, 0.00027414082433097064, -0.14865872263908386, -0.06699977070093155, 0.058376774191856384, -0.12648969888687134, -0.09722202271223068, -0.1467093527317047, -0.15140999853610992, -0.013939552009105682, -0.15262795984745026, -0.07575424760580063, 0.019581083208322525, 0.12857495248317719, -0.08222199231386185, 0.24319514632225037, -0.053219765424728394, -0.0065962523221969604, -0.24226506054401398, -0.33704495429992676, 0.5550307631492615, 0.11292631924152374, -0.006860563065856695, 0.03178246691823006, -0.0663573294878006, -0.17015185952186584, -0.18513795733451843, 0.023355737328529358, 0.06141931936144829, -0.07268372923135757, -0.02025671675801277, 0.10428638011217117, -0.1309051364660263, 0.04970308020710945, -0.12218651920557022, 0.10285169631242752, 0.10227669775485992, 0.01502610370516777, -0.0005363885429687798, -0.026524784043431282, 0.02100999280810356, 0.04842749238014221, 0.002233941340819001, 0.04481401666998863, 0.08797404915094376, 0.1472076177597046, 0.15515238046646118, 0.017826952040195465, -0.038705576211214066, -0.12093154340982437, 0.0008416484924964607, 0.054121751338243484, -0.09872167557477951, -0.09069143235683441, 0.0033085495233535767, 0.0927954614162445, 0.16420531272888184, 0.0029791411943733692, -0.10066323727369308, -0.11875327676534653, -0.11260654032230377, -0.02204882726073265, 0.0024366879370063543, 0.0713532492518425, -0.12994898855686188, 0.1102779284119606, 0.012787588872015476, 0.14448554813861847, 0.2229834944009781, -0.002935423981398344, 0.15911006927490234, -0.12549807131290436, -0.05135714262723923, -0.09635089337825775, 0.11529214680194855, 0.07603314518928528, 0.06828490644693375, 0.01758112944662571, -0.1313115805387497, -0.0689813494682312, -0.1303142011165619, -0.08261305093765259, -0.03305032476782799, 0.09238321334123611, 0.0076317028142511845, 0.003379976376891136, -0.09959481656551361, 0.04531300440430641, -0.10677354782819748, -0.035526733845472336, -0.12756399810314178, -0.0725405141711235, -0.13037261366844177, 0.04490657150745392, 0.10115909576416016, -0.15477155148983002, 0.09570789337158203, -0.10769440233707428, 0.0497485026717186, -0.058744024485349655, -0.011746005155146122, -0.0002793134772218764, -0.03646377846598625, -0.039897143840789795, -0.1061699390411377, -0.0838572308421135, 0.00497007928788662, -0.18888944387435913, -0.12962210178375244, 0.032563306391239166, -0.11532271653413773, -0.01062993798404932, -0.021508904173970222, 0.055056944489479065, -0.09658224880695343, 0.08441074937582016, 0.06306520849466324, -0.012665273621678352, 0.03474373370409012, 0.1333926022052765, 0.10399023443460464, -0.07917843759059906, -0.0788167342543602, -0.010056393221020699, -0.0737176313996315, 0.061367619782686234, 0.0023954364005476236, 0.11933097243309021, 0.10125824809074402, 0.06500344723463058, -0.10341954976320267, -0.13508373498916626, 0.014728744514286518, -0.03690643608570099, -0.026054684072732925, -0.12805721163749695, -0.16651244461536407, 0.10576697438955307, 0.15904995799064636, 0.023652754724025726, -0.04437220096588135, -0.19566278159618378, -0.012512778863310814, 0.0088573032990098, -0.10057035088539124, -0.1079879105091095, 0.1953895539045334, 0.05001237243413925, 0.016297701746225357, -0.04968493804335594, 0.1543104648590088, 0.038787417113780975, 0.10257955640554428, 0.13933227956295013, -0.03701907396316528, 0.12936615943908691, -0.10031794756650925, -0.040766097605228424, -0.08361627906560898, 0.06330149620771408, 0.13388358056545258, -0.05403812974691391, 0.15592336654663086, 0.14921891689300537, -0.019677776843309402, 0.08733268082141876, 0.12867209315299988, 0.04205045849084854, 0.071212038397789, 0.06861356645822525, -0.11257510632276535, 0.143416166305542, -0.1494637429714203, 0.027064239606261253, 0.11646485328674316, 0.19601114094257355, 0.05592081695795059, 0.13057702779769897, 0.13622328639030457, 0.28200656175613403, -0.1320292055606842, -0.08902151882648468, -0.02905277907848358, 0.013530309312045574, -0.02013770304620266, -0.1523905098438263, -0.022536050528287888, -0.13462284207344055, 0.0907483845949173, 0.0680708959698677, 0.16230328381061554, 0.15133532881736755, 0.13832953572273254, 0.10835180431604385, 0.039575498551130295, -0.15055052936077118, 0.048074521124362946, -0.018935253843665123, -0.1250104010105133, 0.08068166673183441, 0.1211722195148468, 0.02854449674487114, -0.06883865594863892, 0.11875458806753159, 0.11473048478364944, 0.08053179085254669, -0.13887979090213776, 0.12305052578449249, 0.040755197405815125, 0.08770918101072311, 0.07440083473920822, -0.055556319653987885, -0.04978020861744881, -0.13822950422763824, 0.07285259664058685, 0.05825179070234299, 0.07654020935297012, 0.0748603492975235, -0.017301073297858238, 0.025812745094299316, 0.010316001251339912, 0.002354816999286413, 0.15190492570400238, -0.13691389560699463, 0.0607357956469059, 0.01794651709496975, 0.08713321387767792, -0.07285874336957932, 0.07067694514989853, -0.13037706911563873, -0.17506955564022064, 0.09728307276964188, 0.11761106550693512, -0.03846815973520279, 0.003448878414928913, -0.11416881531476974, 0.12725602090358734, -0.04783596843481064, 0.10860221832990646, 0.15203818678855896, 0.0026440871879458427, -0.14664392173290253, 0.014737227000296116, 0.013229998759925365, 0.1407717913389206, 0.114169642329216, 0.0561639629304409, -0.10896632820367813, 0.012123899534344673, -0.04347369819879532, -0.041851866990327835, 0.03677215799689293, -0.0073267691768705845, -0.12001281976699829, -0.04887120798230171, -0.04292084276676178, -0.039644382894039154, -0.07733672112226486, 0.1393321007490158, -0.14575126767158508, -0.030916249379515648, 0.0004899936611764133, -0.025191055610775948, -0.009526730515062809, -0.05138947069644928, -0.02462979219853878, -0.006837966851890087, -0.04033583775162697, 0.0011073900386691093, 0.005718500819057226, -0.0036408943124115467, 0.02240166999399662, 0.0015136402798816562, 0.07281135022640228, -0.13391318917274475, 0.012589197605848312, 0.05290595442056656, -0.10500426590442657, -0.005431623198091984, 0.2099323272705078, 0.012649016454815865, 0.005989729892462492, 0.07066330313682556, -0.08173312246799469, 0.06917931139469147, -0.13567949831485748, 0.02515074424445629, 0.129308819770813, -0.14197006821632385, 0.03676588088274002, -0.0247381292283535, 0.09889781475067139, -0.01049549039453268, 0.05776969715952873, 0.031528595834970474, -0.04086952656507492, 0.037950776517391205, -0.14193867146968842, 0.021914616227149963, 0.7055138349533081, -0.7875949144363403, 0.04719355329871178, 0.04625915735960007, -0.13177700340747833, -0.12591832876205444, 0.04797003045678139, -0.20402085781097412, -0.046693623065948486, -0.16364386677742004, -0.06538470834493637, -0.07856937497854233, 0.07204709202051163, 0.023756133392453194, -0.06907492876052856, -0.05396774038672447, -0.08749706298112869, 0.12318851053714752, -0.16719549894332886, -0.16199907660484314, 0.17787204682826996, -0.12323173135519028, 0.1355520635843277, 0.0667126402258873, 0.01661483570933342, 0.09670785069465637, 0.06647805124521255, -0.09595899283885956, -0.10821843147277832, 0.1304592490196228, -0.02393091656267643, 0.077791728079319, -0.04455574229359627, -0.1347236931324005, -0.0808483138680458, 0.03541681170463562, -0.07259171456098557, 0.030230607837438583, 0.12122999131679535, 0.09454496949911118, -0.13323751091957092, -0.03568938001990318, -0.019562978297472, -0.05629107728600502, 0.12591871619224548, 0.061809979379177094, -0.16279785335063934, -0.1431933492422104, -0.1274992972612381, -0.11973931640386581, -0.08162069320678711, -0.07693183422088623, -0.11776807904243469, -0.11479862779378891, -0.13237039744853973, -0.11311931163072586, -0.013678611256182194, -0.0021404519211500883, 0.034603144973516464, 0.10259069502353668, -0.04751867428421974, -0.08163363486528397, -0.07045598328113556, 0.015593859367072582, 0.0789695456624031, -0.13929058611392975, 0.055471066385507584, 0.10799159109592438, -0.043127354234457016, 0.13529589772224426, -0.08473926037549973, -0.14087393879890442, 0.0413939394056797, -0.04451173171401024, 0.04754670336842537, 0.11104243993759155, -0.024831485003232956, 0.10411959141492844, 0.002295953221619129, -0.1328062266111374, 0.1140509620308876, 0.002941523212939501, 0.00994268711656332, -0.1401410549879074, -0.03763693571090698, 0.0446212999522686, -0.01381648052483797, -0.11121728271245956, 0.0722300261259079, 0.08718529343605042, -0.11733825504779816, -0.12644802033901215, 0.03692224994301796, 0.06193915009498596, -0.08720763772726059, 0.10413763672113419, 0.1501832902431488, -0.07317031919956207, -0.11489047110080719, 0.06101091951131821, -0.08631480485200882, -0.0581439733505249, -0.0580524280667305, 0.006097215693444014, 0.06384650617837906, 0.10583128780126572, -0.006219505798071623, 0.14676639437675476, 0.016593629494309425, 0.0012215052265673876, -0.008648530580103397, -0.10888337343931198, 0.12294080853462219, 0.0021756989881396294, 0.13522571325302124, 0.09063468873500824, 0.13629332184791565, -0.07763051241636276, 0.07462704181671143, -0.01887822337448597, 0.058208316564559937, -0.06975702196359634, -0.1574060618877411, -0.09133296459913254, 0.02925592102110386, -0.14575034379959106, -0.10629332065582275, -0.03169367462396622, -0.050555888563394547, -0.10280722379684448, -0.07199904322624207, 0.0397222563624382, -0.09890154749155045, -0.13313348591327667, 0.1243329644203186, 0.039029065519571304, 0.017426928505301476, 0.1572066992521286, -0.06147497892379761, -0.13262546062469482, -0.2851167321205139, 0.09393365681171417, -0.028517553582787514, 0.09301715344190598, -0.05861583724617958, 0.14182811975479126, -0.0139264902099967, -0.07187530398368835, -0.12895992398262024, -0.11431517452001572, 0.022369155660271645, 0.1047046110033989, -0.029273036867380142, 0.0011473546037450433, -0.03496681526303291, -0.0030534546822309494, 0.14174745976924896, 0.09061002731323242, 0.018397275358438492, 0.054943084716796875, -0.05078117176890373, -0.18509510159492493, -0.19131335616111755, -0.032744817435741425, 0.0281878262758255, -0.08168689161539078, -0.04256266728043556, -0.026030637323856354, -0.1290295571088791, -0.14442266523838043, -0.10397911071777344, 0.09171777963638306, -0.09454206377267838, -0.07879066467285156, 0.036910317838191986, -0.15171600878238678, -0.0349905826151371, 0.008605517446994781, 0.07948412746191025, 0.13849128782749176, 0.010835293680429459, 0.021434582769870758, -0.06373094022274017, 0.03533841669559479, -0.09961981326341629, 0.015378269366919994, 0.09121634811162949, 0.05101170390844345, 0.13387472927570343, 0.14496035873889923, -0.05142660066485405, 0.07408472895622253, 0.02599150687456131, 0.1309540867805481, 0.0879034548997879, -0.07726660370826721, -0.15564052760601044, -0.008097057230770588, -0.08307096362113953, 0.05349895358085632, -0.0029022200033068657, 0.0337989367544651, 0.15324804186820984, -0.08484694361686707, 0.002878650324419141, 0.09242140501737595, 0.06403174996376038, -0.0553872250020504, -0.3458181619644165, -0.02288191206753254, -0.5035523772239685, -0.3133331835269928, -0.055617183446884155, 0.012526883743703365, -0.12603174149990082, 0.18910099565982819, -0.004640988539904356, -0.036510199308395386, 0.35673391819000244, 0.03728810325264931, 0.15425699949264526, -0.15192432701587677, -0.03496547043323517, 0.09809022396802902, 0.18757562339305878, 0.0114895673468709, 0.11255671083927155, 0.03265617787837982, 0.13589979708194733, -0.03895396366715431, 0.012122203595936298, -0.02330073155462742, -0.1023748442530632, -0.12355342507362366, 0.14384900033473969, -0.018161047250032425, 0.4512404203414917, -0.0411405973136425, -0.08836328983306885, -0.038574811071157455, -0.03944643586874008, -0.04334201291203499, 0.007530723232775927, -0.01043164823204279, -0.022102337330579758, -0.010813090018928051, -0.15999042987823486, -0.29542773962020874, -0.20618011057376862, 0.02251989021897316, -0.2393542379140854, -0.060078445822000504, 0.03862539306282997, -0.09395581483840942, -0.0771329253911972, -0.1359749436378479, 0.05121709778904915, -0.14809571206569672, 0.047522954642772675, 0.05987123027443886, 0.2826201319694519, -0.022884055972099304, 0.07909868657588959, 0.03360174223780632, 0.04525115713477135, -0.10604880005121231, 0.058401767164468765, 0.1196168065071106, -0.13305571675300598, -0.13940435647964478, -0.1382109820842743, 0.010419756174087524, 0.1462443768978119, 0.09649468958377838, -0.018322935327887535, 0.08493189513683319, 0.01615559495985508, 0.0063606626354157925, -0.08088171482086182, -0.1414879560470581, -0.041322771459817886, 0.06846220791339874, -0.004288623575121164, -0.04193101450800896, 0.05528845638036728, 0.15445666015148163, 0.11524555832147598, -0.00801299512386322, -0.019395820796489716, -0.004372572060674429, -0.04394550621509552, -0.021770361810922623, -0.1508796066045761, -0.0865195170044899, -0.004209448583424091, 0.06216816604137421, -0.1381109356880188, 0.10445422679185867, -0.05891304090619087, -0.015420258045196533, 0.1727796494960785, -0.1167067363858223, 0.007557416334748268, 0.060634445399045944, -0.07391984760761261, -0.0275822002440691, -0.13651205599308014, 0.1381041407585144, -0.00555705139413476, -0.09621350467205048, -0.05248101428151131, -0.1433827430009842, 0.14272205531597137, -0.04663940519094467, 0.11676470935344696, 0.018990935757756233, -0.28527241945266724, 0.0009551786934025586, -0.0721602812409401, 0.05738040432333946, 0.22087061405181885, -1.199344277381897, -0.2413889765739441, -0.08294292539358139, 0.08786481618881226, 0.12761850655078888, -0.11572471261024475, 0.07641088962554932, -0.1758115440607071, -0.09515942633152008, -0.1644509732723236, 0.0817299336194992, -0.03994319587945938, 0.08840880542993546, 0.014134729281067848, -0.1344468593597412, -0.04866062104701996, -0.1277388632297516, -0.18121658265590668, 0.10549383610486984, 0.14031021296977997, -0.03316628932952881, -0.039587702602148056, 0.07882325351238251, 0.09091958403587341, -0.08408815413713455, 0.022177426144480705, -0.09162463247776031, -0.14614801108837128, -0.12208712846040726, -0.11678101122379303, 0.0767417773604393, -0.10756964236497879, -0.14788083732128143, 0.10105453431606293, -0.01760336570441723, -0.2345622330904007, -0.05406184121966362, 0.045233312994241714, -0.09845510125160217, 0.13045966625213623, -0.20921246707439423, -0.21366046369075775, -0.1634540557861328, -0.1713782101869583, -0.15678636729717255, -0.18573546409606934, -0.12318863719701767, 0.016747716814279556, -0.18877197802066803, 0.15561725199222565, -0.1544264853000641, 0.05550718307495117, -0.10770195722579956, 0.07758825272321701, 0.1191553920507431, -0.0407375730574131, -0.08775828778743744, -0.07673722505569458, -0.2100205421447754, -0.19977691769599915, -0.07235300540924072, -0.08480163663625717, 0.11550246924161911, 0.05079677700996399, -0.05138854682445526, 0.06805894523859024, -0.10367828607559204, 0.0678049772977829, 0.1509857028722763, 0.08967328816652298, -0.08341175317764282, -0.0593656487762928, -0.07966925948858261, -0.04313432797789574, 0.033596333116292953, 0.16341345012187958, -0.09608019888401031, -0.04873965308070183, 0.009751904755830765, -0.11759757995605469, 0.06636500358581543, -0.022904934361577034, -0.051702968776226044, -0.08587878942489624, -0.02286052145063877, -0.06213179975748062, 0.019196797162294388, 0.052728909999132156, -0.05548921972513199, -0.09285492449998856, 0.007586578838527203, -0.0019696832168847322, -0.06105825677514076, -0.002228588331490755, -0.00297640822827816, -0.09397400170564651, -0.06228798255324364, 0.023034248501062393, -0.131294846534729, -0.1451503336429596, -0.04433244466781616, -0.09688840061426163, 0.15095297992229462, -0.0971582755446434, 0.03578277304768562, -0.020629821345210075, 0.020582115277647972, 0.10500194877386093, 0.06894511729478836, -0.0115217799320817, 0.020604997873306274, -0.029716884717345238, 0.09538176655769348, -0.008134734816849232, 0.08080920577049255, 0.12598882615566254, 0.09983310103416443, -0.030853891745209694, 0.10287585854530334, -0.10467959940433502, 0.044804997742176056, 0.006377231329679489, -0.11889541149139404, -0.12020780146121979, 0.024468423798680305, -0.1633516103029251, -0.046032942831516266, -0.12158148735761642, 0.024509768933057785, -0.019780265167355537, -0.06097729876637459, 0.11499685794115067, -0.012620806694030762, -0.0685548186302185, -0.0024899248965084553, 0.011307470500469208, -0.06205787882208824, 0.24300891160964966, 0.013306543231010437, 0.08466251939535141, -0.06332112103700638, -0.09621887654066086, 0.1566745489835739, -0.17146700620651245, -0.11318697035312653, -0.0550030954182148, 0.1257554292678833, -0.04983735829591751, 0.08006754517555237, -0.14614173769950867, 0.13512007892131805, -0.025126919150352478, -0.08838841319084167, 0.15600484609603882, -0.017347188666462898, 0.2467634230852127, 0.03547853231430054, 0.039055123925209045, 0.08657792210578918, -0.09236712753772736, -0.0008908134186640382, -0.03500182554125786, -0.09462183713912964, -0.04577082768082619, 0.10503276437520981, -0.020487820729613304, 0.011300146579742432, -0.03280043974518776, 0.17492789030075073, 0.16703464090824127, 0.22758601605892181, -0.07689303904771805, -0.1568720042705536, -0.021312933415174484, 0.0660134106874466, -0.06655403226613998, -0.04163520038127899, 0.10571051388978958, 0.19153982400894165, -0.01968814991414547, -0.04242730140686035, -0.015250164084136486, -0.035064734518527985, 0.1220657005906105, -0.049339018762111664, 0.15252894163131714, 0.12957985699176788, 0.09020834416151047, -0.10338643193244934, 0.11698203533887863, -0.06848300248384476, -0.10582201182842255, -0.08481324464082718, 0.04105997830629349, 0.0565633550286293, -0.0533408559858799, 0.051987338811159134, 0.04077104851603508, 0.003707433817908168, -0.017107248306274414, 0.00024602850317023695, -0.007615935057401657, 0.22751456499099731, 0.03441496565937996, 0.06575824320316315, -0.11762946099042892, -0.0865679606795311, 0.0920020043849945, -0.14398524165153503, -0.164969339966774, -0.1646844446659088, -0.01956311985850334, -0.15283356606960297, -0.15272776782512665, 0.0028966660611331463, -0.03262413665652275, -0.08631325513124466, -0.048305656760931015, -0.07443628460168839, 0.009939952753484249, 0.13851849734783173, -0.11488210409879684, -0.05301552265882492, -0.10929646342992783, 0.08001520484685898, -0.010806681588292122, 0.0893920287489891, -0.04725028946995735, 0.12831240892410278, -0.03407297655940056, -0.10239755362272263, 0.0652412623167038, -0.14880983531475067, 0.061199791729450226, -0.11035262793302536, 0.11164850741624832, 0.07339827716350555, 0.1543111503124237, 0.028158515691757202, -0.15220850706100464, 0.008195914328098297, -0.10644141584634781, -0.0011796331964433193, -0.0940597727894783, 0.030893530696630478, -0.007032122928649187, -0.06473014503717422, 0.03613010793924332, -0.19673024117946625, 0.018284020945429802, -0.13396981358528137, -0.087315134704113, -0.06822569668292999, -0.09787312895059586, -0.1859598308801651, 0.14763879776000977, 0.04421224445104599, 0.22682999074459076, 0.046591829508543015, 0.03558550402522087, 0.017507974058389664, -0.02129303850233555, -0.12666046619415283, -0.011994831264019012, 0.14555998146533966, -0.14950287342071533, 0.09074783325195312, 0.0797368511557579, -0.009946447797119617, 0.1332601010799408, -0.15299499034881592, 0.00836041010916233, 0.0483061708509922, 0.0483662411570549, -0.002717329189181328, 0.07463327795267105, -0.012136682868003845, 0.1449170857667923, -0.006416719406843185, 0.014910632744431496, 0.003383248345926404, -0.005137001164257526, -0.1078137755393982, -0.0954081192612648, 0.11616799980401993, -0.19805313646793365, -0.008911464363336563, -0.04154039919376373, 0.06313463300466537, -0.19966445863246918, -0.3179599940776825, -0.10037336498498917, -0.114853136241436, -0.1359412968158722, -0.07114212960004807, 0.05104932561516762, 0.06011989712715149, 0.11894897371530533, 0.070317342877388, -0.005486077629029751, -0.06366746127605438, 0.1358773559331894, 0.06955564022064209, 0.017924785614013672, -0.11294889450073242, -0.09108177572488785, -0.09752271324396133, -0.058505889028310776, -0.053120944648981094, -0.0020701843313872814, 0.07133617997169495, 0.06615890562534332, -0.06812625378370285, -0.12706129252910614, 0.11185859143733978, 0.05035819485783577, 0.11106686294078827, -0.13142824172973633, 0.013254373334348202, 0.17221301794052124, -0.056667082011699677, -0.06775403767824173, -0.03489961102604866, -0.09187965095043182, -0.02961874008178711, -0.12942226231098175, -0.16645963490009308, 0.045676425099372864, -0.049036260694265366, -0.17449557781219482, 0.05604245141148567, 0.04843607544898987, 0.009447185322642326, 0.1562659740447998, -0.06524860113859177, 0.06039158254861832, -0.09238159656524658, -0.06311531364917755, -0.11621962487697601, -0.07573281228542328, -0.0757794976234436, 0.11887943744659424, -0.031947698444128036, -0.10866863280534744, 0.00295303575694561, 0.0681866854429245, 0.04164065048098564, 0.10835763067007065, -0.10985564440488815, -0.028620930388569832, 0.07730281352996826, 0.020167728886008263, 0.060012366622686386, -0.0020592520013451576, -0.030937014147639275, 0.09414051473140717, -0.14898207783699036, -0.1556723564863205, 0.10323188453912735, 0.02356666699051857, 0.00876196101307869, -0.10622817277908325, -0.17121125757694244, 0.1463221162557602, -0.054090894758701324, -0.04872570559382439, 0.019267810508608818, 0.04242485389113426, 0.08111557364463806, -0.13832637667655945, 0.015317304991185665, -0.021558852866292, -0.07938532531261444, -0.08109906315803528, 0.03324256092309952, 0.00014072397607378662, 0.12982335686683655, -0.1377291977405548, 0.268591970205307, 0.40892064571380615, 0.1251855194568634, -0.0054290276020765305, -0.045953597873449326, -0.06043160706758499, -0.13512969017028809, -0.058942366391420364, 0.07500322163105011, -0.15052063763141632, -0.15633973479270935, -0.040866609662771225, -0.015247384086251259, 0.12275680154561996, 0.0533418133854866, -0.038666654378175735, -0.02964778244495392, -0.12383634597063065, -0.02539694681763649, 0.04222754016518593, -0.031546324491500854, 0.04574187099933624, 0.013923212885856628, 0.0027055395767092705, 0.0910426452755928], "bias": [0.22928202152252197, -0.05948840454220772, -0.03421320021152496, -0.12072651833295822, 0.11156338453292847, -0.0009915722766891122, -0.18897810578346252, 0.06489787995815277, 0.18871533870697021, 0.16592364013195038, 0.13310331106185913, -0.04615813121199608, -0.14265866577625275, 0.014403128065168858, 0.0063850609585642815, -0.11900032311677933, -0.010812467895448208, 0.04504084959626198, -0.07910805195569992, 0.009073588997125626, -0.04431040212512016, -0.03330928459763527, 0.10776498913764954, -0.06459541618824005, -0.15281708538532257, -0.019153526052832603, -0.03502405807375908, 0.0927964448928833, 0.023195404559373856, -0.11261675506830215, -0.09139229357242584, -0.015556405298411846, -0.10229971259832382, 0.012731542810797691, -0.06895381212234497, 0.0622965432703495, -0.047360099852085114, 0.03209040313959122, 0.03690279275178909, -0.09946978837251663, 0.12698985636234283, 0.005514278542250395, 0.1463303416967392, -0.0004662427236326039, -0.17882588505744934, 0.01039865892380476, 0.05134138464927673, -0.010308495722711086, -0.1721738874912262, -0.04017316922545433, -0.11064411699771881, 0.020322220399975777, -0.007933394983410835, -0.12209580093622208, -0.08081579208374023, 0.08914227038621902, 0.005022786557674408, -0.0015489764045923948, 0.1846550852060318, 0.03823913261294365, 0.02671251818537712, -0.12728558480739594, 0.09079103171825409, 0.12320944666862488]}, {"inSize": 64, "outSize": 64, "weights": [-0.05715258792042732, 0.26566511392593384, -0.07209301739931107, -0.003723741043359041, 0.04001953452825546, 0.08180253952741623, 0.15802675485610962, 0.16032518446445465, 0.0401453860104084, 0.1826184093952179, 0.019181132316589355, 0.10034799575805664, -0.020639803260564804, 0.11561012268066406, -0.01885710284113884, 0.04548226296901703, -0.06451119482517242, 0.07125761359930038, 0.11958641558885574, 0.014327995479106903, -0.07930732518434525, -0.050607867538928986, 0.09953684359788895, 0.001543283462524414, 0.07136660814285278, 0.07506278902292252, 0.05467495322227478, 0.1217668429017067, -0.20872384309768677, 0.09373772889375687, -0.0001292717206524685, 0.026651406660676003, -0.39502111077308655, 0.15809334814548492, 0.02475651353597641, 0.13661888241767883, 0.20769093930721283, -0.11037739366292953, -0.2782856822013855, -0.014381211251020432, -0.07158312201499939, -0.10176096111536026, -0.11556553095579147, -0.0018271452281624079, 0.10092789679765701, -1.4920481443405151, -0.09237378090620041, 0.06744199991226196, -0.023453928530216217, 0.27704042196273804, 0.0652114748954773, 0.20108307898044586, -0.09831447154283524, -0.5284752249717712, -0.07295789569616318, -0.07487040013074875, 0.03570021688938141, -0.06525717675685883, 0.10876579582691193, -0.042441096156835556, 0.01789991371333599, -0.04028543457388878, 0.07327688485383987, 0.08811423927545547, -0.026721036061644554, 0.22038011252880096, -0.022877033799886703, 0.10297928005456924, -0.018366485834121704, 0.11838255077600479, -0.07733124494552612, 0.09552037715911865, 0.23140570521354675, -0.15506026148796082, 0.10931738466024399, 0.062311820685863495, 0.02118816412985325, 0.07493036240339279, 0.021422535181045532, -0.050483133643865585, -0.04519696533679962, 0.15720893442630768, 0.011278069578111172, -0.018990827724337578, -0.12738092243671417, 0.05932217463850975, 0.06845401227474213, 0.003024846315383911, 0.07359237223863602, 0.02992313727736473, -0.06933911144733429, 0.035003360360860825, -0.10207562893629074, 0.12850040197372437, 0.024649519473314285, -0.06578732281923294, -0.46860313415527344, 0.2200644612312317, -0.01813356764614582, -0.030313080176711082, -0.04558752477169037, -0.0010495175374671817, -0.1702738106250763, -0.07314267754554749, -0.07434418797492981, -0.09063727408647537, 0.0589866116642952, 0.09716282784938812, -0.02268960326910019, -1.7430616617202759, -0.06252658367156982, 0.02565804496407509, -0.03387103229761124, 0.04424687847495079, 0.05489461123943329, 0.2571132779121399, 0.06049755588173866, -0.7042210102081299, 0.09679959714412689, 0.06294657289981842, 0.050823092460632324, -0.08123809844255447, 0.007288973778486252, 0.10964731127023697, 0.11496497690677643, -0.05359038710594177, 0.057158879935741425, -0.09200144559144974, 0.01103238295763731, -0.12706305086612701, 0.004426374100148678, -0.023235488682985306, 0.055731166154146194, -0.08958723396062851, 0.022617677226662636, 0.03770296275615692, -0.02465815469622612, -0.018203413113951683, -0.0627480149269104, 0.002129203639924526, -0.07917165756225586, 0.05658496171236038, -0.15724466741085052, 0.07149902731180191, 0.02174532413482666, 0.09636901319026947, -0.007071002386510372, 0.007305449806153774, 0.018783628940582275, 0.06580329686403275, -0.056595269590616226, -0.12341101467609406, 0.0589224211871624, -0.009329963475465775, -0.07692848145961761, -0.001958115492016077, -0.03888276219367981, 0.0758269876241684, -0.020041944459080696, 0.10922658443450928, -0.024532096460461617, 0.09082559496164322, 0.00858432985842228, 0.03210359066724777, -0.08714376389980316, 0.1001036986708641, 0.05018819868564606, 0.046160466969013214, 0.1359117031097412, 0.08730798214673996, 0.09476035088300705, -0.0863606333732605, 0.17400632798671722, -0.05372065305709839, 0.05554094538092613, 0.015540399588644505, 0.03717567399144173, -0.0629197508096695, 0.04473435878753662, 0.03217843547463417, -0.09536079317331314, 0.17339152097702026, -0.13134226202964783, 0.1124051883816719, -0.06337817013263702, -0.0007263121660798788, 0.037676867097616196, 0.07782712578773499, -0.008452480658888817, 0.06958182901144028, 0.011025026440620422, -0.18653446435928345, -0.019451122730970383, 0.09376127272844315, -0.09531605988740921, -0.07522131502628326, 0.03050587885081768, 0.10819575935602188, 0.07596364617347717, 0.13680078089237213, -0.04857372120022774, 0.13139128684997559, 0.08735386282205582, 0.00746836606413126, -0.058493722230196, -0.006069956347346306, -0.0518156923353672, 0.10628288984298706, 0.08194106817245483, -0.049774739891290665, -0.03373318538069725, 0.07154660671949387, -0.04330159351229668, -0.09636829048395157, 0.08480953425168991, -0.03835481405258179, 0.10563192516565323, 0.0707864761352539, 0.11762562394142151, 0.12915612757205963, -0.09327642619609833, 0.060868989676237106, 0.006140009965747595, 0.08582031726837158, -0.5453655123710632, 0.03815464675426483, 0.16428403556346893, 0.057817790657281876, 0.14365902543067932, 0.12144429981708527, -0.25258535146713257, 0.13707013428211212, -0.0597243495285511, 0.006307425443083048, -0.04211768880486488, 0.070787712931633, -0.07493554800748825, -1.5342639684677124, -0.005874428898096085, -0.06669048964977264, -0.10077188909053802, 0.3088419735431671, 0.09321404993534088, 0.3365651071071625, 0.06310693174600601, -0.6509835124015808, 0.08016720414161682, -0.05874070152640343, -0.05438074469566345, -0.07265515625476837, 0.08078667521476746, -0.08782964944839478, -0.011194697581231594, 0.1207837462425232, -0.09300238639116287, -0.10010102391242981, 0.12119966000318527, -0.09568483382463455, 0.14305450022220612, 0.14409439265727997, -0.055794667452573776, 0.056762903928756714, 0.004427970387041569, -0.09418051689863205, -0.04490441828966141, -0.06755125522613525, -0.035722024738788605, 0.12517541646957397, -0.07079578936100006, -0.03708327189087868, 0.03490063175559044, -0.010661679320037365, -0.0069318413734436035, 0.14677608013153076, -0.11431261152029037, 0.001977980602532625, 0.04475462809205055, 0.074305459856987, 0.06881231814622879, 0.07859896123409271, -0.09988952428102493, -0.17015743255615234, 0.05922771990299225, -0.12631557881832123, 0.19801098108291626, 0.054862696677446365, 0.04371464252471924, -0.0006192064611241221, 0.3963681161403656, -0.2040972113609314, -0.13569322228431702, 0.04148701950907707, -0.05425514280796051, -0.12106252461671829, 0.11355368793010712, -0.1393696665763855, -0.043754398822784424, 0.05640815943479538, 0.01822461187839508, 0.12541715800762177, 0.11924192309379578, 1.3187531232833862, -0.01509111188352108, -0.06908618658781052, -0.09254591166973114, -0.2914087474346161, 0.12285809218883514, -0.0887518972158432, -0.059373967349529266, 0.48876097798347473, 0.08773578703403473, 0.1418682336807251, -0.004511356353759766, -0.06966344267129898, 0.08167045563459396, 0.019389674067497253, 0.01468955259770155, 0.06755830347537994, 0.09462572634220123, 0.006753178779035807, 0.1002453938126564, 0.22055009007453918, -0.276653915643692, -0.017816269770264626, 0.07237912714481354, 0.1446610391139984, 0.0333283506333828, -0.0788586288690567, -0.02310699224472046, 0.11563388258218765, 0.09585624188184738, 0.1102052554488182, 0.12334485352039337, -0.019510269165039062, -0.04670490697026253, 0.07780855149030685, -0.07470522820949554, -0.15620245039463043, 0.11788485944271088, 0.20372037589550018, -0.012981688603758812, 0.09737195074558258, -0.08673445880413055, -0.03479953110218048, -0.11226548999547958, 0.01874418929219246, 0.008380711078643799, 0.13479556143283844, -0.1690996140241623, -0.02350633218884468, -0.08110020309686661, 0.07269490510225296, -0.379562109708786, 0.18075747787952423, 0.06780820339918137, -0.11971218138933182, 0.1642223745584488, 0.0081882793456316, -0.3631521463394165, 0.1263037621974945, 0.15033377707004547, 0.05162545293569565, -0.14998801052570343, 0.12866653501987457, 0.06007322296500206, -1.3490604162216187, 0.07017011940479279, 0.02569236420094967, 0.07884609699249268, 0.11325766891241074, 0.06983239948749542, 0.11560789495706558, 0.10883734375238419, -0.6726097464561462, -0.11359312385320663, -0.1642937809228897, -0.11713840067386627, 0.1492214798927307, 0.02433657832443714, 0.1001782938838005, -0.11615314334630966, 0.021906079724431038, 0.09057020395994186, -0.023497864603996277, -0.007940729148685932, 0.2984555661678314, -0.1974927932024002, -0.01709304004907608, 0.06423044204711914, 0.015369453467428684, 0.061861779540777206, 0.08514655381441116, -0.0031645167618989944, 0.027368275448679924, 0.13202343881130219, 0.058402836322784424, 0.023705774918198586, 0.07467199116945267, 0.017316287383437157, 0.11441345512866974, 0.012831762433052063, -0.068973608314991, -0.03838297352194786, 0.07731292396783829, -0.08531731367111206, 0.05024150758981705, 0.12210666388273239, 0.06728355586528778, -0.00810012686997652, 0.24029718339443207, 0.046230003237724304, 0.10569260269403458, -0.059667039662599564, 0.16357485949993134, 0.14859218895435333, -0.0881655216217041, -0.5458372235298157, 0.03708778694272041, 0.017662156373262405, 0.031561508774757385, 0.029793865978717804, -0.0950532853603363, -0.15081343054771423, -0.07322458177804947, -0.04833056405186653, 0.09151653945446014, -0.06458067893981934, -0.012441270984709263, 0.04321897029876709, -1.688773274421692, 0.02604559250175953, 0.0683138370513916, 0.016770372167229652, 0.11736715584993362, 0.03617449104785919, 0.23462441563606262, 0.016078442335128784, -0.526907205581665, 0.034422867000103, -0.16809716820716858, 0.09882852435112, 0.06257938593626022, -0.06794767826795578, 0.12658363580703735, 0.08678843826055527, -0.1170656755566597, 0.006523554213345051, 0.03597293049097061, 0.04273079335689545, -0.017783595249056816, 0.013590183109045029, 0.00019112040172331035, 0.016340933740139008, 0.026532946154475212, -0.07932071387767792, -0.018901465460658073, -0.04378838464617729, -0.07306009531021118, -0.08413569629192352, 0.003105447394773364, 0.05492270365357399, -0.11059495806694031, 0.009604942984879017, -0.14373642206192017, 0.023082435131072998, -0.15349973738193512, 0.027782365679740906, 0.06821491569280624, 0.005958178546279669, 0.12267003208398819, 0.008190886117517948, 0.04728895425796509, 0.10230211913585663, -0.028264319524168968, 0.013013407588005066, -0.035378094762563705, 0.08621083199977875, -0.02823173999786377, -0.024017786607146263, 0.0504915677011013, 0.017211774364113808, -0.10795533657073975, -0.002717688214033842, -0.17299900949001312, 0.0035287050995975733, 0.11486244201660156, 0.03111104853451252, -0.016496632248163223, -0.14782460033893585, 0.0192090030759573, -0.0936364084482193, -0.004250627942383289, -0.12823161482810974, 0.09240933507680893, 0.0029966619331389666, 0.06809322535991669, -0.03988053277134895, -0.10056407749652863, 0.07155947387218475, 0.029064519330859184, 0.09413235634565353, 0.012711498886346817, -0.10112088173627853, -0.016905035823583603, 0.05968201160430908, -0.13173647224903107, -0.09294445067644119, -0.12041601538658142, -0.14643777906894684, -0.03468513488769531, -0.0768267810344696, 0.054388172924518585, 0.13013331592082977, 0.13762351870536804, -0.15576773881912231, 0.1298608034849167, 0.11199027299880981, -0.0006130088004283607, 0.05008164793252945, 0.014163021929562092, -0.05679154768586159, -0.04071510210633278, 0.1440458446741104, 0.08946295082569122, -0.056556232273578644, 0.08205699175596237, 0.062088824808597565, -0.0913439393043518, 0.0015832483768463135, 0.04045872017741203, -0.044633641839027405, 0.03374815359711647, -0.20087233185768127, 0.06035589426755905, 0.09677691757678986, -0.019889086484909058, 0.04842076450586319, 0.12676793336868286, 0.013426452875137329, -0.011297936551272869, 0.008864983916282654, 0.06250285357236862, 0.12487117946147919, -0.06796937435865402, -0.5240243077278137, 0.1918925791978836, 0.10310465842485428, 0.10555478185415268, 0.17785443365573883, 0.0789102166891098, -0.24489539861679077, 0.0973627045750618, 0.08271002769470215, 0.03212766349315643, -0.13127471506595612, 0.11434218287467957, -0.02371532842516899, -1.4774330854415894, -0.016151439398527145, -0.07588371634483337, 0.09129548072814941, 0.17117582261562347, -0.05019991099834442, 0.1654026359319687, 0.0022031173575669527, -0.705912709236145, -0.018570881336927414, -0.016629492864012718, 0.049198538064956665, 0.056673161685466766, 0.04193653166294098, -0.05861079320311546, -0.0020684455521404743, -0.06405673176050186, -0.025556404143571854, 0.08723727613687515, -0.052845653146505356, 0.00836020614951849, 0.1149522140622139, 0.08139071613550186, -0.0488593615591526, -0.14682351052761078, -0.012306937016546726, -0.11562797427177429, -0.11616958677768707, 0.10353650897741318, 0.08201536536216736, 0.040739405900239944, -0.03823423385620117, 0.0510355569422245, -0.11466822028160095, -0.08478657156229019, -0.04754136502742767, -0.11992762982845306, 0.10687255859375, -0.09212421625852585, 0.07442618906497955, -0.04624713957309723, -0.10323111712932587, 0.04353417456150055, -0.09994840621948242, 0.06342384219169617, 0.01615406572818756, -0.024594685062766075, -0.01630936935544014, 0.05564838647842407, 0.06220029667019844, 0.054070666432380676, 0.08768633008003235, -0.11111930012702942, -0.09078022837638855, -0.041552916169166565, -0.090245820581913, -0.12347541749477386, 0.015637287870049477, 0.11271870881319046, 0.05952192470431328, 0.016978731378912926, 0.126120463013649, -0.09579437226057053, -0.07009365409612656, 0.04885832965373993, -0.10121345520019531, 0.046652525663375854, -0.005738705396652222, -0.04070790112018585, 0.026964008808135986, 0.0579715259373188, -0.07358872890472412, -0.00014546513557434082, -0.05323144420981407, -0.049673888832330704, -0.024662256240844727, -0.08364199846982956, 0.06787562370300293, -0.0894336849451065, 0.06092270091176033, -0.09327371418476105, -0.11215996742248535, -0.054509662091732025, -0.055277325212955475, -0.044979631900787354, 0.23704905807971954, -0.07308871299028397, -0.03993234410881996, -0.05687088891863823, 0.048026904463768005, -0.14013004302978516, -0.15516506135463715, -0.02615957334637642, 0.03011211007833481, -0.08099638670682907, 0.028124870732426643, 0.11737257242202759, 0.12329645454883575, 0.16175761818885803, 0.08554799854755402, 0.15376996994018555, -0.08326110243797302, -0.22134409844875336, 0.08311870694160461, 0.052731696516275406, -0.03217336907982826, 0.04425917565822601, -0.07299162447452545, -0.11350201070308685, -0.1191936731338501, -0.08321136236190796, 0.22565306723117828, -0.10416877269744873, -0.03491327911615372, 0.10342328250408173, 0.5372552871704102, -0.22493161261081696, -0.028774501755833626, -0.038765907287597656, -0.02299267239868641, 0.06225309893488884, 0.2835077941417694, -0.07889221608638763, -0.010075141675770283, 0.10744816809892654, 0.1341439038515091, 0.028962278738617897, 0.063725046813488, 1.5593924522399902, -0.030458908528089523, -0.08323691785335541, 0.08500690013170242, -0.1761152744293213, -0.07480379939079285, -0.3207237422466278, -0.08565408736467361, 0.8226739764213562, -0.010614144615828991, 0.09079736471176147, 0.013940498232841492, -0.011560279875993729, 0.011989069171249866, 0.119268037378788, 0.0574338398873806, -0.08324916660785675, -0.07774900645017624, -0.1270395815372467, -0.0500800795853138, 0.16275310516357422, -0.02573159709572792, 0.014744365587830544, -0.05560697242617607, 0.054904159158468246, -0.005198988597840071, 0.05954141169786453, 0.16269400715827942, 0.1506805270910263, 0.03253467381000519, -0.0860658660531044, -0.03307785838842392, 0.1187635287642479, -0.022700898349285126, 0.09502674639225006, -0.07142969965934753, 0.006949980277568102, -0.021277764812111855, 0.1175025999546051, -0.17210157215595245, -0.08553261309862137, 0.036622364073991776, -0.08233422040939331, 0.10461205989122391, -0.07157433032989502, 0.0568263977766037, 0.12675884366035461, -0.01764584891498089, 0.04919860139489174, 0.17327432334423065, -0.10549326241016388, -0.6127197742462158, 0.20193001627922058, 0.10609593242406845, 0.18113890290260315, 0.05166345834732056, -0.029551316052675247, -0.24510900676250458, 0.022591518238186836, 0.05911964178085327, -0.020581627264618874, 0.06997863203287125, 0.04702966660261154, -0.06343375891447067, -1.6674848794937134, 0.1280791014432907, -0.06833899021148682, 0.10799285024404526, 0.2576746940612793, -0.0896410346031189, 0.1581304967403412, -0.07564397901296616, -0.7476155161857605, 0.011174398474395275, 0.016940800473093987, -0.04945938289165497, -0.007379200775176287, -0.06447771936655045, 0.045028507709503174, -0.08403678238391876, 0.04866190627217293, -0.045342590659856796, 0.02455861307680607, -0.10419067740440369, 0.040412575006484985, -0.09461469948291779, -0.08685527741909027, -0.1058652400970459, -0.06758108735084534, -0.09994658827781677, 0.03139863908290863, -0.021704524755477905, 0.11756753921508789, -0.10122309625148773, -0.10624438524246216, -0.05173799395561218, -0.09267573058605194, -0.09721970558166504, 0.0007434487342834473, 0.012958064675331116, 0.03737629950046539, 0.004712209105491638, 0.10586464405059814, 0.03170555830001831, -0.07456716895103455, -0.10743358731269836, 0.05467037856578827, 0.058657556772232056, 0.1148708164691925, 0.0016215592622756958, 0.018973708152770996, 0.009661167860031128, 0.025090306997299194, 0.06425938010215759, 0.06510068476200104, -0.1179618388414383, -0.06127454340457916, -0.02842026948928833, -0.11056125164031982, 0.09795595705509186, 0.06674933433532715, 0.029524773359298706, 0.07340650260448456, -0.1171286553144455, 0.05746935307979584, 0.10173997282981873, 0.06286418437957764, 0.04732801020145416, 0.10362176597118378, -0.004637971520423889, -0.11988642811775208, 0.027595922350883484, 0.009861648082733154, -0.018662437796592712, 0.012519046664237976, -0.05485847592353821, 0.12469583749771118, -0.02244621515274048, 0.04553684592247009, 0.10147307813167572, 0.10380449891090393, -0.01269841194152832, -0.11241045594215393, -0.00282151997089386, -0.022480010986328125, 0.11279065907001495, 0.030168622732162476, 0.09455716609954834, -0.06562269479036331, 0.26124104857444763, 0.010710613802075386, -0.14679382741451263, -0.06513506174087524, -0.11768767237663269, -0.1485700011253357, 0.19749082624912262, -0.07057750970125198, -0.02147386595606804, 0.01389402151107788, -0.021248415112495422, 0.003393234685063362, -0.07103177905082703, -0.02668641321361065, 0.01790180802345276, 0.13676059246063232, -0.06773009151220322, -0.07167787849903107, 0.05525192245841026, 0.07797949016094208, 0.1262100785970688, -0.01993420720100403, 0.09755546599626541, -0.15626102685928345, 0.06549139320850372, 0.13339973986148834, 0.25457563996315, -0.009262142702937126, -0.19219374656677246, -0.09069967269897461, 0.3249388039112091, -0.03219322860240936, -0.2291909158229828, 0.12086831033229828, -0.04503483697772026, -0.09123768657445908, 0.1804223358631134, 0.017428314313292503, 0.1525266021490097, 0.028271177783608437, 0.08960170298814774, 0.1074819564819336, 0.017203524708747864, 1.5933996438980103, -0.09774931520223618, 0.014449344016611576, -0.026118488982319832, -0.23558400571346283, -0.001248002052307129, -0.21961666643619537, 0.05654134973883629, 0.6280237436294556, -0.007012533955276012, 0.061542440205812454, 0.05319689214229584, -0.1138189509510994, 0.047813016921281815, 0.034918785095214844, 0.00020333674910943955, -0.04489392787218094, 0.09021122753620148, -0.017257535830140114, -0.012922042049467564, -0.12286625802516937, -0.01000369805842638, 0.03244522213935852, 0.1200583428144455, -0.006297573447227478, 0.05931761860847473, -0.09541408717632294, -0.03307044133543968, 0.0784466490149498, 0.07868223637342453, -0.14141830801963806, -0.020113781094551086, 0.0030125081539154053, -0.002991420915350318, -0.11854272335767746, 0.12114128470420837, 0.03403811156749725, 0.04732152819633484, -0.034298885613679886, -0.04983535781502724, 0.12244687974452972, -0.10018830001354218, 0.0183304101228714, 0.10603199899196625, -0.0011007970897480845, 0.11639490723609924, -0.09308471530675888, 0.031237274408340454, -0.039463162422180176, 0.0855361744761467, -0.0598384290933609, -0.03583541512489319, -0.10321543365716934, 0.07878691703081131, 0.05208135396242142, -0.006386136636137962, -0.11146104335784912, -0.11784599721431732, 0.06827256083488464, 0.08856761455535889, -0.05599042773246765, -0.04279465600848198, -0.021744586527347565, -0.06088128685951233, 0.025617986917495728, -0.07002762705087662, -0.0988941490650177, -0.013667881488800049, -0.10333751142024994, -0.05631333589553833, -0.06438153982162476, -0.015270084142684937, -0.11153356730937958, -0.09938006103038788, -0.017317116260528564, 0.08384871482849121, -0.02068294957280159, -0.07536469399929047, 0.09105423092842102, -0.13650883734226227, 0.053220171481370926, -0.025426745414733887, 0.004326824564486742, -0.06552131474018097, -0.12894824147224426, -0.05521872267127037, -0.1568494737148285, 0.007389085367321968, -0.06258228421211243, -0.00768263079226017, -0.017550047487020493, 0.07372906804084778, -0.06355759501457214, -0.11668037623167038, 0.050262562930583954, -0.09670718759298325, 0.029388651251792908, -0.035010501742362976, 0.06385103613138199, 0.0035442858934402466, -0.05545230582356453, -0.11698880791664124, -0.038173526525497437, 0.032987069338560104, 0.10850519686937332, -0.021057521924376488, -0.03235183656215668, -0.07611830532550812, -0.1040041372179985, 0.055092692375183105, -0.046589020639657974, 0.11210349947214127, 0.00190517189912498, 0.06172626465559006, -0.12819628417491913, -0.056237462908029556, 0.07056660950183868, -0.17104485630989075, 0.01328146830201149, -0.08348346501588821, -0.03879059851169586, -0.046730659902095795, 0.029455944895744324, 0.005370670929551125, -0.042011555284261703, 0.039423201233148575, 0.014718613587319851, -0.009336910210549831, -0.019899222999811172, 0.0759105309844017, 0.09313686937093735, -0.11045323312282562, -0.0026217340491712093, 0.011964946985244751, 0.05283212661743164, 0.05870138108730316, 0.022330205887556076, -0.07996750622987747, -0.016394836828112602, -0.026060909032821655, -0.051206156611442566, -0.1692778617143631, -0.019504263997077942, 0.0420757457613945, -0.12770876288414001, -0.008060663938522339, 0.0028730714693665504, 0.1365085393190384, -0.2333189696073532, 0.22564564645290375, 0.023191431537270546, 0.07976076751947403, -0.049948226660490036, -0.02939731627702713, -0.03578340634703636, 0.13011325895786285, -0.10754065215587616, 0.03502471372485161, 0.07045935839414597, 0.0013818404404446483, -0.08920818567276001, -0.047604478895664215, 0.03958817571401596, 0.10005956888198853, 0.03979901224374771, 0.028365425765514374, -0.08600325137376785, 0.22090725600719452, 0.09306097030639648, 0.10942649096250534, -0.1075923889875412, 0.07987277954816818, -0.08099924772977829, -0.10047395527362823, -0.09859707206487656, 0.2479274421930313, 0.05286576971411705, -0.1637132465839386, -0.06777434051036835, 0.4144493043422699, -0.20470614731311798, 0.00611827103421092, -0.006934008095413446, -0.17369970679283142, 0.061626601964235306, 0.27029362320899963, -0.004581280052661896, 0.10077708959579468, -0.00035713313263840973, 0.1321762353181839, -0.01694883592426777, 0.08096737414598465, 1.50967538356781, -0.07545249164104462, 0.03533655405044556, -0.008845234289765358, -0.3088347613811493, -0.020736172795295715, -0.2560509741306305, 0.024469997733831406, 0.6762307286262512, 0.060668304562568665, 0.048176296055316925, -0.021741151809692383, -0.138832688331604, 0.0770183876156807, -0.033027518540620804, 0.1732652336359024, -0.037354182451963425, -0.002813770668581128, -0.0704893246293068, 0.0516422837972641, 0.18091687560081482, -0.21482504904270172, 0.1557123064994812, 0.11522169411182404, 0.1012750044465065, 0.08211509883403778, -0.018346088007092476, -0.06674912571907043, 0.18173572421073914, 0.1434997171163559, -0.032986193895339966, 0.08936148881912231, 0.11558756232261658, -0.0872914046049118, 0.11677603423595428, -0.05789251625537872, 0.0426730178296566, 0.0433034785091877, 0.05904683843255043, -0.21882601082324982, -0.008455779403448105, -0.007290043402463198, -0.020575404167175293, 0.12070684134960175, 0.167380228638649, 0.014078348875045776, 0.15749283134937286, -0.0907483845949173, -0.00948929600417614, -0.040471598505973816, -0.08112745732069016, -0.5874267220497131, -0.04585374891757965, 0.20544536411762238, -0.051552433520555496, 0.09880416095256805, -0.03592073544859886, -0.15245074033737183, -0.031243804842233658, 0.09649454802274704, -0.1341753453016281, 0.0048328302800655365, 0.09912461787462234, 0.025694025680422783, -1.7433803081512451, -0.06216316297650337, 0.012141234241425991, 0.11890369653701782, 0.23402522504329681, 0.0036509037017822266, 0.19310691952705383, 0.12093669176101685, -0.5329185724258423, 0.0714181438088417, 0.07895999401807785, -0.002415597438812256, 0.05614965409040451, -0.0013100130017846823, -0.06703312695026398, -0.036222998052835464, 0.09416206181049347, -0.04386511072516441, 0.06360799074172974, 0.05447191372513771, 0.28284454345703125, -0.11359935253858566, -0.04619693011045456, 0.16930735111236572, 0.10567888617515564, 0.05097492039203644, 0.01632583700120449, 0.029240470379590988, 0.14891231060028076, 0.1219637542963028, -0.1357170045375824, -0.02362610399723053, 0.06214667484164238, -0.08249951899051666, 0.06343816965818405, -0.07424572110176086, 0.051189083606004715, 0.07673438638448715, 0.1894868016242981, -0.20438721776008606, -0.013850975781679153, 0.07370762526988983, -0.056115880608558655, -0.02546709030866623, 0.22748792171478271, -0.10828179121017456, -0.0004628783790394664, -0.03792324662208557, -0.006766392383724451, 0.18992437422275543, 0.06737887859344482, -0.5213053822517395, 0.0222319308668375, 0.030772976577281952, 0.059447597712278366, 0.014382508583366871, -0.07937498390674591, -0.2147391438484192, 0.05787111818790436, -0.11831626296043396, -0.0031416907440871, -0.08984456956386566, 0.07329262048006058, 0.10187456011772156, -1.5269888639450073, 0.031216170638799667, -0.03511963412165642, -0.00022132830054033548, 0.3181001842021942, 0.052069976925849915, 0.3180612623691559, -0.002533429767936468, -0.6819680333137512, -0.03738075867295265, 0.06342685967683792, -0.04644075036048889, -0.03641504421830177, 0.030527561902999878, 0.10946711152791977, 0.008700711652636528, -0.02590245008468628, 0.035940177738666534, 0.04159967228770256, -0.13385336101055145, -0.041994526982307434, -0.10131105780601501, 0.003817159915342927, 0.01696781814098358, -0.07015645503997803, -0.10891851782798767, 0.010349259711802006, -0.11686193197965622, 0.011052162386476994, -0.1462797075510025, -0.016732266172766685, -0.1239234209060669, -0.07528604567050934, -0.10161995887756348, -0.11391559988260269, -0.09077893197536469, 0.0734369233250618, -0.09238123893737793, 0.004930732771754265, 0.013799844309687614, 0.024197757244110107, -0.009325292892754078, -0.07329198718070984, 0.09755915403366089, 0.08795145899057388, -0.02991706132888794, 0.08487734198570251, 0.07626928389072418, 0.1020820140838623, -0.09879781305789948, -0.08047746866941452, -0.05112868547439575, 0.07648583501577377, -0.012770113535225391, -0.052996281534433365, -0.019626185297966003, 0.08275943994522095, 0.08863212913274765, -0.0397222638130188, -0.01762385480105877, 0.0865163803100586, -0.13426771759986877, 0.05451850965619087, -0.08286452293395996, -0.03135375678539276, 0.06580021232366562, 0.045128677040338516, 0.11769869923591614, -0.11576381325721741, 0.011750146746635437, -0.00661487877368927, -0.08819764852523804, 0.01607387326657772, 0.041545744985342026, 0.018586650490760803, 0.07836997509002686, 0.05842594429850578, 0.047945018857717514, 0.07224833965301514, -0.09103928506374359, -0.07420197129249573, -0.02263905107975006, 0.013084156438708305, -0.02926342748105526, 0.11511640250682831, -0.041361253708601, 0.06983311474323273, 0.10263480246067047, -0.005719929933547974, 0.0925254076719284, -0.05684472620487213, -0.07936584949493408, -0.00031182411476038396, 0.08046415448188782, -0.07572738081216812, 0.023064618930220604, -0.05173608660697937, 0.04760494455695152, 0.12171269208192825, 0.07417134940624237, -0.12658821046352386, 0.009918945841491222, 0.10884284228086472, 0.005613223649561405, 0.01142795942723751, 0.12391670048236847, -0.0037697255611419678, 0.12975360453128815, 0.18748962879180908, -0.031373530626297, 0.07753881812095642, -0.07026272267103195, 0.005588694475591183, 0.1803884208202362, -0.047496188431978226, -0.4054361879825592, 0.1020081490278244, 0.22087955474853516, 0.12215716391801834, 0.1785292774438858, -0.048301056027412415, -0.21688416600227356, 0.1556822657585144, 0.036323148757219315, 0.03898985683917999, -0.14878243207931519, -0.10235756635665894, 0.11751165986061096, -1.6397755146026611, 0.038693394511938095, 0.07586780190467834, 0.032832469791173935, 0.19942012429237366, 0.06476575136184692, 0.22993865609169006, 0.1497582644224167, -0.6899768114089966, 0.07391291111707687, -0.21866421401500702, 0.006186231970787048, 0.08513186126947403, 0.014708650298416615, -0.05240428447723389, 0.029049521312117577, 0.12540584802627563, 0.10807616263628006, 0.11273278295993805, 0.06344527006149292, -0.14710618555545807, 0.13287852704524994, 0.13854828476905823, -0.05237780511379242, 0.15721437335014343, -0.08051997423171997, -0.06892771273851395, -0.04900357499718666, 0.04864487424492836, 0.01963207870721817, -0.041511934250593185, -0.03379085287451744, -0.04935767874121666, 0.09459100663661957, 0.018460595980286598, 0.07678167521953583, -0.01965927891433239, 0.09949007630348206, -0.1186385378241539, 0.2086663842201233, -0.002652391791343689, 0.15216781198978424, 0.09642376005649567, 0.06380712240934372, -0.1529468297958374, 0.1224646121263504, -0.06839259713888168, 0.08425682038068771, 0.09488558769226074, -0.11380219459533691, -0.07930135726928711, 0.2642148733139038, -0.08227090537548065, -0.06145261600613594, 0.026000026613473892, 0.014864075928926468, 0.09569860994815826, 0.4238010346889496, -0.007739405147731304, -0.057189736515283585, 0.04638587310910225, 0.04046693071722984, 0.12391454726457596, -0.03474020957946777, 1.4774219989776611, -0.12870286405086517, -0.06801736354827881, 0.03752274066209793, -0.28324511647224426, 0.11072027683258057, -0.28679096698760986, 0.035218413919210434, 0.5075616836547852, 0.02749682031571865, 0.07724501192569733, -0.05864940583705902, -0.0020441722590476274, 0.016633283346891403, 0.09118837863206863, 0.1546172797679901, 0.031629528850317, 0.00350433262065053, -0.018088458105921745, 0.10037141293287277, 0.19910600781440735, -0.28460046648979187, -0.07278569042682648, 0.04488293454051018, 0.10943603515625, -0.05543868988752365, 0.0532456673681736, -0.06211499497294426, 0.18068376183509827, 0.020883409306406975, -0.020199179649353027, 0.06748346239328384, -0.0608849935233593, -0.085415780544281, 0.08472993224859238, 0.024875059723854065, -0.10535711795091629, -0.09306610375642776, 0.15257756412029266, -0.05112498998641968, 0.09029886871576309, -0.06793477386236191, -0.11594904959201813, 0.016188904643058777, 0.03567154332995415, 0.06032377481460571, -0.04749590530991554, -0.06510422378778458, -0.010399509221315384, 0.17571762204170227, 0.15971094369888306, -0.5386043190956116, 0.22388575971126556, 0.1988723874092102, 0.1241314634680748, 0.20664511620998383, -0.0012413366930559278, -0.14225374162197113, 0.05390993133187294, -0.007669019978493452, -0.11022230237722397, 0.029123030602931976, -0.016514945775270462, 0.06448757648468018, -1.6575586795806885, 0.12567032873630524, 0.0028464572969824076, -0.0365363247692585, 0.15228578448295593, 0.09459806978702545, 0.11867889016866684, 0.12637311220169067, -0.5763712525367737, -0.05545644834637642, -0.006646358873695135, -0.07947221398353577, 0.10757775604724884, -0.06449077278375626, -0.08416632562875748, 0.0427229180932045, -0.010509058833122253, 0.05989580228924751, 0.014389636926352978, 0.04474969953298569, 0.11430516839027405, 0.04295648634433746, 0.15617957711219788, -0.10785434395074844, -0.025195952504873276, -0.09263146668672562, 0.14310042560100555, 0.1584988534450531, -0.18497894704341888, -0.08007064461708069, 0.09195396304130554, 0.09228198975324631, -0.0684710443019867, 0.00477833766490221, -0.06496567279100418, 0.04568471014499664, 0.08627834171056747, 0.1216532438993454, -0.10372193157672882, 0.05594419687986374, 0.09084601700305939, 0.005048306193202734, 0.08787567913532257, -0.04536829888820648, 0.07266002893447876, -0.10761386156082153, 0.1677556335926056, -0.015296976082026958, 0.044538527727127075, -0.06461750715970993, -0.0530402734875679, -0.6395871043205261, -0.011255685240030289, 0.055063825100660324, 0.10440140962600708, 0.034767791628837585, 0.07278108596801758, -0.03473980352282524, -0.06748518347740173, -0.034569837152957916, 0.005925201810896397, 0.057442277669906616, 0.05059363320469856, 0.05370066314935684, -2.298027276992798, 0.01813407801091671, -0.10691317170858383, 0.07973939180374146, -0.07908473163843155, 0.06885592639446259, -0.0021386195439845324, -0.07692953199148178, -0.8735888600349426, 0.045206449925899506, 0.07207082211971283, 0.06231601536273956, 0.03214447200298309, 0.04734235629439354, -0.039118438959121704, 0.052032168954610825, -0.040324099361896515, 0.03545811399817467, -0.08332760632038116, -0.07681819051504135, 0.173971489071846, -0.1272149384021759, -0.04425462707877159, -0.029480110853910446, 0.0314984992146492, -0.021220142021775246, 0.043156735599040985, 0.12108409404754639, 0.08190979808568954, -0.05197620019316673, 0.10954272747039795, 0.12286324799060822, -0.022277574986219406, 0.143279567360878, 0.12791766226291656, -0.10439781844615936, 0.11060135811567307, -0.095970019698143, 0.23618723452091217, 0.03482523187994957, -0.1310558170080185, 0.05897662043571472, -0.08624331653118134, -0.004788639489561319, 0.026267943903803825, 0.04959233105182648, 0.15332655608654022, -0.1619042158126831, 0.09213019162416458, 0.05051235854625702, -0.049325622618198395, -0.5034361481666565, 0.19285346567630768, 0.13625843822956085, -0.0563509427011013, 0.19920286536216736, 0.07224860042333603, -0.30439335107803345, -0.03330862522125244, 0.07477099448442459, 0.02571927197277546, -0.14638148248195648, -0.05881054699420929, -0.008555516600608826, -1.3550723791122437, 0.13730444014072418, -0.04517487436532974, 0.12920723855495453, 0.28235942125320435, -0.0477273166179657, 0.19329720735549927, 0.022087199613451958, -0.47817057371139526, -0.04422982037067413, -0.02302207425236702, 0.07902753353118896, 0.059297703206539154, 0.1191265657544136, -0.08237835019826889, 0.062203314155340195, -0.08668000251054764, 0.030760852620005608, 0.07512865960597992, 0.12579360604286194, -0.059517752379179, 0.23501384258270264, -0.024340437725186348, -0.039569903165102005, 0.03876031935214996, -0.07201703637838364, -0.12410631030797958, 0.08560162782669067, -0.10074159502983093, -0.009515377692878246, 0.14448042213916779, -0.020627476274967194, 0.04379499703645706, 0.08185243606567383, 0.04393433406949043, -0.007104262709617615, 0.021927297115325928, -0.09504673629999161, -0.07210984081029892, 0.1422850489616394, 0.07570847868919373, 0.01568649336695671, 0.05334942042827606, 0.13283832371234894, -0.05425363406538963, 0.06341412663459778, 0.05730151757597923, 0.10939626395702362, -0.062282122671604156, -0.1175217553973198, 0.0029855926986783743, 0.44284892082214355, -0.09822644293308258, -0.06600817292928696, 0.08100370317697525, -0.13703663647174835, -0.034501709043979645, 0.25835564732551575, -0.021792855113744736, 0.13448725640773773, 0.05946016311645508, 0.1652776598930359, 0.00591126037761569, -0.07906095683574677, 1.4268876314163208, -0.029133295640349388, 0.09922850877046585, 0.03471492603421211, -0.09047823399305344, -0.12306945025920868, -0.1093447208404541, -0.11352207511663437, 0.4357765316963196, -0.0397416427731514, 0.10357321798801422, -0.01135021448135376, -0.11717650294303894, 0.07281094789505005, 0.01590992696583271, -0.02688455767929554, 0.10824809968471527, -0.049455076456069946, -0.11223544925451279, -0.029158830642700195, 0.019044488668441772, 0.01938679814338684, 0.1244349330663681, 0.00592447817325592, -0.10032619535923004, 0.09690472483634949, -0.005675420165061951, 0.0979161411523819, 0.08874562382698059, 0.1149577647447586, 0.09117738902568817, 0.06579659879207611, -0.005004897713661194, 0.030847027897834778, -0.019949331879615784, -0.10214273631572723, -0.074392169713974, -0.036176636815071106, 0.047203630208969116, 0.009068548679351807, 0.07742133736610413, -0.09561321139335632, -0.11243879795074463, 0.0865522027015686, 0.04704941809177399, 0.10277283191680908, -0.003889039158821106, -0.08570730686187744, -0.12340433895587921, -0.02134867012500763, -0.07804219424724579, -0.06418094038963318, -0.06803539395332336, 0.019050374627113342, -0.09415039420127869, 0.08250144124031067, 0.10863445699214935, -0.08024612069129944, -0.01235315203666687, -0.034167736768722534, 0.061307117342948914, -0.0826011598110199, -0.07883229851722717, 0.055514782667160034, 0.08477567136287689, -0.0468779057264328, -0.024336814880371094, -0.04051046073436737, -0.08263160288333893, 0.0009841769933700562, 0.07597611844539642, 0.03376714885234833, 0.09076733887195587, -0.049408987164497375, -0.05145236849784851, -0.046619713306427, 0.0695764571428299, -0.0728658139705658, -0.032275885343551636, 0.10399852693080902, -0.12493914365768433, 0.12182062864303589, -0.035405829548835754, 0.03525690734386444, 0.3159825801849365, -0.1619158536195755, 0.00985258724540472, 0.03717447444796562, 0.0778706893324852, 0.0849536657333374, -0.05782805383205414, 0.10694689303636551, -0.007929660379886627, -0.09799180924892426, -0.013210727833211422, -0.0027880948036909103, 0.08028634637594223, 0.09907664358615875, 0.00894142035394907, 0.08331513404846191, -0.0787406712770462, -0.07098996639251709, 0.1504230946302414, -0.08153191953897476, -0.11635458469390869, 0.11410487443208694, 0.01605626940727234, 0.015771742910146713, 0.1793828010559082, 0.12230886518955231, -0.007948239333927631, -0.1532377004623413, -0.024527210742235184, 0.04921254515647888, -0.019824888557195663, -0.4770418703556061, 0.10220810025930405, 0.11420663446187973, 0.08355516940355301, 0.14345449209213257, 0.09851247072219849, -0.1710587441921234, -0.014939852058887482, -0.06930389255285263, -0.1037052720785141, -0.008369294926524162, 0.0049415635876357555, 0.12357769161462784, -1.8015083074569702, -0.08381416648626328, 0.003780810162425041, 0.07921542972326279, 0.21010412275791168, -0.0368819534778595, 0.33670368790626526, 0.03522438183426857, -0.6807399392127991, 0.06153767928481102, -0.06453192234039307, -0.09024986624717712, 0.15267562866210938, -0.04982002452015877, 0.008518476970493793, 0.00035184549051336944, -0.06058073788881302, -0.03973369672894478, -0.08430709689855576, -0.012782220728695393, -0.1298033744096756, -0.03286215662956238, 0.007865709252655506, -0.022529255598783493, 0.0823044404387474, 0.08348695188760757, -0.033339548856019974, -0.056924134492874146, -0.013429360464215279, 0.0905919298529625, 0.11906149983406067, -0.03243893384933472, 0.08518122136592865, -0.0553811639547348, -0.08075567334890366, 0.0072946250438690186, -0.05147044360637665, -0.04128720238804817, 0.10615485906600952, -0.04792342707514763, 0.023185696452856064, 0.02471466176211834, 0.1139017641544342, 0.036159392446279526, 0.00727554177865386, -0.09956961870193481, 0.0923624262213707, 0.024346264079213142, -0.17515136301517487, 0.0782317966222763, -0.10659243911504745, 0.27412304282188416, 0.025349969044327736, 0.08772756904363632, -0.022107252851128578, 0.006979350466281176, -0.0974445641040802, -0.021128015592694283, -0.07699667662382126, 0.0034361297730356455, -0.007485445588827133, 0.11133347451686859, -0.0029343811329454184, -0.027046898379921913, 0.470319926738739, 0.08388258516788483, -0.023515013977885246, 0.06291777640581131, 0.11531834304332733, -0.0454033762216568, 0.08555024117231369, 0.0892167016863823, 0.45880627632141113, -0.12475524842739105, 0.06411142647266388, 0.11421014368534088, -0.13830696046352386, 0.054257143288850784, 0.07057712972164154, -0.10744107514619827, -0.024442274123430252, -0.09830763936042786, 0.12936165928840637, -0.09090397506952286, 0.24736441671848297, -0.1031331717967987, 0.009095197543501854, 0.005254552233964205, -0.059402287006378174, -0.06192948669195175, -0.07948298007249832, 0.042035020887851715, 0.010659010149538517, 0.04234500974416733, -0.036371707916259766, 0.07275167852640152, 0.08453197777271271, -0.06462691724300385, 0.05044184997677803, 0.049313873052597046, -0.05412967875599861, 0.13450218737125397, 0.2253149300813675, -0.18488147854804993, -0.10042086988687515, -0.022839251905679703, 0.11638261377811432, -0.06951950490474701, 0.09441927820444107, -0.11338235437870026, -0.003062872914597392, -0.16532903909683228, 0.08266900479793549, 0.18823961913585663, 0.11163227260112762, -0.5430992841720581, 0.022597337141633034, 0.08889266103506088, -0.028460947796702385, 0.15437264740467072, 0.04952947422862053, -0.3470827639102936, 0.15776434540748596, 0.10655837506055832, 0.03399302437901497, -0.1158071830868721, 0.1445666253566742, -0.10085645318031311, -1.6780909299850464, 0.08471550792455673, -0.061534248292446136, 0.06206149607896805, 0.2908041477203369, 0.08928126096725464, 0.2031707614660263, 0.11700613796710968, -0.590166449546814, -0.04255661368370056, -0.09021459519863129, -0.08474546670913696, 0.002379470504820347, 0.11991021782159805, -0.00039624105556868017, 0.03296180069446564, 0.051572561264038086, -0.018521573394536972, 0.06320694088935852, 0.07683277875185013, 0.16632096469402313, -0.2629329264163971, -0.036609627306461334, 0.11453986167907715, 0.07579270750284195, -0.012972820550203323, 0.04233010485768318, 0.14902479946613312, 0.12261073291301727, -0.051684003323316574, 0.0045371344313025475, 0.1364220678806305, 0.013488257303833961, 0.06627238541841507, 0.07291629910469055, -0.1073925644159317, 0.04159822314977646, 0.0006365296430885792, 0.12350883334875107, -0.11884799599647522, 0.07244184613227844, 0.0835854560136795, 0.11261077225208282, 0.04428262636065483, -0.06327942758798599, 0.004697859287261963, 0.032281167805194855, 0.0177976805716753, 0.054523102939128876, 0.00922732800245285, 0.03972090035676956, -0.540505588054657, 0.16174659132957458, -0.05115387216210365, 0.06479080766439438, -0.0017175881657749414, 0.09211309999227524, -0.22086241841316223, 0.05214594677090645, 0.15790697932243347, -0.16292740404605865, -0.00918540544807911, 0.06006013602018356, -0.06771697849035263, -1.9539662599563599, -0.032988883554935455, -0.009071742184460163, -0.02132290042936802, 0.10116875916719437, 0.07862251996994019, 0.21488326787948608, 0.022806532680988312, -0.8782299160957336, -0.11686128377914429, 0.031304020434617996, 0.05848976969718933, -0.11384367197751999, 0.07441290467977524, 0.003376573324203491, 0.04012766480445862, 0.06194780021905899, -0.010532015934586525, -0.14237774908542633, -0.0746942013502121, -0.005541488062590361, 0.019622722640633583, -0.12186186015605927, 0.0405217781662941, -0.05966964736580849, -0.11927486211061478, 0.06577916443347931, 0.0786595419049263, -0.08804591745138168, -0.007470294367522001, 0.0225432850420475, -0.022902455180883408, 0.005402460694313049, 